350 100
vel:7 0.1821484 0.046555106 -0.29413235 -0.13648382 0.053333458 0.04213668 0.05954261 0.3236491 0.12050804 0.2920808 -0.06063554 -0.023644378 -0.078729525 0.15054196 -0.13590203 -0.04163922 0.11294617 0.102039054 0.2986609 0.17032053 0.11669145 0.12510592 -0.1792071 -0.18494055 0.12050838 0.5960693 -0.26818746 -0.048293553 -0.090782 0.29670927 -0.2637982 -0.26688424 -0.15687104 0.16334794 -0.23887782 -0.15851417 -0.15507418 0.20375603 -0.31094402 0.18328932 0.021647077 -0.17392978 0.5287647 -0.065980256 0.08088299 -0.12018973 0.111980036 0.16130456 0.07105484 0.35402656 0.0399553 -0.15998547 -0.4125055 0.27085647 0.1097284 0.16028897 -0.02360867 -0.1364883 -0.44977582 -0.2195844 -0.12721883 -0.19822909 0.6101503 0.013945605 -0.19326979 0.023923378 0.09591454 -0.24928543 0.17417337 -0.29278612 0.061037667 0.2239268 -0.06511203 0.23537189 0.06163568 -0.016111862 0.26105693 -0.22379465 0.1328436 -0.13473892 -0.25436068 0.056464218 0.21685328 -0.6986672 -0.06911427 0.633005 0.09280809 -0.007818174 0.28505763 0.40636402 0.09328668 0.10950022 -0.165063 0.07449196 0.15025331 -0.02747049 -0.06572928 0.06559608 -0.003138648 0.35015503
http://purl.org/midi-ld/programs/0 0.047062937 -0.2952852 0.11965794 -0.14141747 0.17494352 -0.08771482 -0.056186095 -0.19651324 0.39096245 0.047421664 0.076177314 -0.0066676605 -0.01070272 -0.11411615 -0.33003175 0.12099803 0.15179494 -0.012413683 0.32277122 -0.05261256 -0.23258199 0.21968375 -0.03749745 -0.22526203 -0.35946414 -0.113717765 0.06409706 0.133901 0.116584785 0.2275261 -0.20501308 -0.60471535 -0.16989183 0.08619453 -0.2954021 -0.13748801 -0.07622708 0.022309115 -0.36017206 -0.29418182 0.14382651 -0.2585857 -0.047217816 -0.018006934 -0.11319195 -0.3695 -0.080107614 0.16924004 -0.088006906 0.11683286 0.1850136 -0.44892406 -0.20522666 0.21402505 0.006091556 0.059168387 0.22499213 -0.19356345 -0.3299702 0.18220147 0.18530571 -0.25746772 0.12337411 -0.2151123 -0.061906673 -0.1594935 0.10302031 0.17407234 0.096671574 -0.17305179 0.043670036 0.20564876 0.16303812 0.12957844 -0.0044096336 -0.20314966 0.23067318 -0.35194632 0.08908653 0.21406835 -0.13227682 0.12822153 -0.11958317 -0.08147244 -0.16108838 0.036192436 0.038531158 -0.085541934 0.04256396 0.4024289 -0.14335507 0.20186909 -0.059009515 -0.25769192 -0.00081043615 -0.09751045 0.051272254 -0.09542536 0.15440693 -0.13842781
g1692372 -0.10942017 -0.3792004 0.14553386 -0.23600568 0.06650049 -0.15227765 -0.076144375 0.056026228 0.44024482 0.011313592 0.028497567 -0.1085259 -0.08054233 -0.14624408 -0.18224248 0.17392147 -0.13957803 0.009317175 0.38688627 -0.16262612 -0.20495869 0.3627333 0.059979934 -0.4546059 -0.19577281 -0.09758723 0.22813648 0.15683836 0.14696465 0.2622339 -0.25947902 -0.5595857 -0.2581732 0.12607452 -0.32626367 -0.067080714 -0.0662807 -0.08678541 -0.35603702 -0.15221693 0.14767106 -0.35143095 0.08042565 0.010057544 -0.035567135 -0.34510317 -0.2232329 0.092893794 -0.03510517 0.12350071 0.14441822 -0.23635861 -0.2987815 0.19173028 -0.06514751 0.15973428 0.14143583 0.010268468 -0.016198212 0.15195158 0.04816544 -0.111298874 -0.03330853 -0.022790784 0.01790684 -0.1054574 0.06523407 -0.006377259 0.09116654 -0.23040955 -0.04008768 0.08708881 0.1296717 0.10780226 -0.117766395 -0.27163258 0.036806747 -0.60101384 0.14930311 0.1563609 -0.25718194 -0.023455938 -0.06704989 -0.17821275 -0.12630536 -0.045086596 -0.123575084 -0.010043653 -0.08526797 0.26535088 -0.10073658 0.36894765 0.05279222 -0.15331663 0.057896044 -0.118334465 0.05127941 -0.03523736 0.045793585 -0.07195347
g1667386 -0.016311485 -0.42515665 0.110276155 -0.16069831 0.014855343 -0.15370947 -0.29129505 -0.08893346 0.4143416 -0.06794254 -0.03627124 -0.10525887 -0.0047244765 -0.14596139 -0.25902215 0.08985328 -0.14462204 0.14350039 0.3892134 -0.14131315 -0.25566837 0.24028054 -0.040014543 -0.41633767 -0.3149546 -0.060141135 0.21160537 0.32572722 0.12672395 0.3204925 -0.05010268 -0.5321933 -0.1360326 0.18637957 -0.36297303 -0.116092965 -0.14889018 -0.010620796 -0.36393613 -0.22969322 0.0023183553 -0.23704493 -0.07254688 -0.047767326 0.058277078 -0.4140523 -0.11207794 0.08361116 0.0012433548 0.123178564 0.046053894 -0.2638723 -0.28091398 0.06853523 -0.13746111 0.18729821 0.14603615 -0.034228604 -0.0018530189 0.1883166 0.14815235 -0.19246545 0.15840042 -0.015576247 0.054582503 -0.24006443 0.2429802 -0.03134017 0.026481755 -0.37236536 0.072328635 0.0783522 0.12007493 0.1622647 0.046541553 -0.2978877 0.104300044 -0.46783847 0.11094178 0.030747795 -0.22937036 -0.06137613 -0.09705361 -0.24015029 -0.087625235 0.022243155 0.029148731 -0.20192492 0.06598146 0.28486115 -0.18563914 0.2585167 0.11018492 -0.12875947 0.11941313 -0.17867021 -0.060036145 -0.12096157 -0.050906815 -0.15839104
12 0.036234446 -0.39750573 0.15283552 -0.14859323 0.0067779403 -0.1582192 -0.21094939 -0.06489652 0.3843069 -0.019643925 0.02766967 -0.010183651 -0.0655179 -0.24704374 -0.2512268 0.15153454 -0.04772202 0.14044681 0.3819629 -0.19843179 -0.21531573 0.340082 0.04515249 -0.3763893 -0.2459272 0.061227698 0.17786963 0.13868928 0.15422061 0.26027107 -0.10520934 -0.6782416 -0.101284996 0.12590265 -0.28223407 -0.01388328 -0.07721609 -0.106573395 -0.3217193 -0.096113525 0.17604175 -0.3310539 -0.1133235 -0.013505446 -0.04988123 -0.49281815 -0.13035381 0.19482642 -0.041187193 0.07032077 0.05347722 -0.35538834 -0.21506716 0.010066128 0.010713536 0.14335021 0.245736 -0.022603082 -0.14497963 0.1247587 0.119220726 -0.20722106 0.10563907 0.0034874685 0.009391285 -0.15580511 0.15981038 -0.012728659 0.01636842 -0.22812708 0.10753369 0.13787325 0.1777379 0.07422821 -0.06798779 -0.3680039 0.07633658 -0.47540823 0.12300694 0.063332915 -0.18250255 0.016473215 -0.10547039 -0.3130259 -0.13077413 0.00021028101 0.016180582 -0.043860864 0.057323467 0.38548315 -0.031265803 0.24100506 0.12739086 -0.29676598 0.18266574 -0.19090457 -0.026616553 -0.11434908 0.07495161 -0.103997014
g1694294 0.08933431 -0.35923818 0.1621302 -0.23073526 0.14235246 -0.18700992 -0.2638254 -0.103488095 0.392636 -0.008710475 0.004713222 0.03791601 -0.005851337 -0.11695878 -0.33484006 0.17806096 -0.11749232 0.055471703 0.32355964 -0.20470317 -0.1768132 0.30670923 0.11772328 -0.41747534 -0.12773123 0.06427985 0.118614994 0.15601009 0.12578404 0.3220328 -0.24573757 -0.5522482 -0.2089302 0.089370966 -0.30392542 -0.123923555 -0.26014492 -0.1340258 -0.27182093 -0.18943179 0.11083112 -0.2798447 -0.11491884 0.020185875 0.003076655 -0.29945824 -0.14731956 0.06910872 -0.035057716 -0.074681856 -0.09797377 -0.4090885 -0.31021833 0.108775884 0.14810386 0.16973934 0.1549104 0.003695871 -0.05664093 -0.016513342 0.029778073 -0.058717288 0.032607105 -0.10822528 0.07925581 -0.10653402 0.22850856 0.036530294 0.03663359 -0.2140421 -0.019178683 0.12794751 0.13149804 0.07747802 -0.056552596 -0.2728247 0.0018757167 -0.48497215 0.10210405 0.12939128 -0.25719655 0.04526061 -0.018467244 -0.32293397 -0.05131014 0.07443629 -0.06355842 -0.080634266 -0.030656172 0.32898498 -0.22077687 0.39648724 0.11502557 -0.2685755 0.08022927 0.05037733 -0.016105808 -0.016756285 -0.06360551 -0.10212232
g1660659 -0.22473618 -0.43316454 0.03812336 -0.19061689 0.10382564 -0.24041754 0.11145984 -0.09624255 0.34398383 -0.01557246 0.02691507 -0.027959805 -0.04567066 -0.30876276 -0.35734668 0.45554176 -0.07470472 0.036228158 0.23869252 -0.13483533 -0.08121514 0.07621488 -0.029086672 -0.47125 -0.281678 -0.094102904 0.08114702 0.049939882 0.0048350934 0.19802088 -0.26650223 -0.4770211 -0.11157941 0.18012163 -0.28520522 -0.033143982 -0.24436724 -0.13694668 -0.3653984 -0.14396237 0.09854524 -0.28748032 -0.21982245 -0.049772646 0.07314272 -0.418729 -0.25339732 0.14775658 -0.31097212 0.14182177 0.2094761 -0.31007335 -0.3295199 0.11425993 -0.0036681734 0.11822612 0.2944634 -0.099556565 -0.24906372 0.032181654 0.010175675 -0.15529928 -0.15720214 -0.19447848 -0.04046087 -0.18170097 0.08441798 0.038717642 0.20973171 -0.364183 0.08477118 0.11776363 0.092179224 0.056762878 -0.011410577 -0.1804526 0.12568884 -0.4144053 0.24670742 0.22895093 -0.19001012 0.10617903 -0.12765285 -0.15185358 -0.07200149 0.04227852 -0.072842695 -0.017989246 -0.03695418 0.33332282 -0.19971071 0.3349192 0.14692256 -0.23785341 0.12301745 0.035215374 -0.012057272 0.20186132 -0.10535615 -0.08501615
g1689489 0.08895089 -0.37785873 0.1265141 -0.28209934 0.079328805 -0.19487949 -0.2129574 0.021780413 0.44580114 0.016713798 0.024271999 0.009794812 0.0020263535 -0.08539842 -0.2656855 0.2411469 -0.12800351 0.15096842 0.31773043 -0.15216857 -0.23915832 0.26657784 0.049201503 -0.36477962 -0.22244139 0.035281606 0.11182224 0.07198276 0.08808192 0.32561734 -0.0013882412 -0.52493185 -0.020642858 0.061498314 -0.2006763 -0.1718167 -0.16011283 -0.09549547 -0.28901848 -0.07341296 0.009994315 -0.28022966 -0.07668969 0.06233997 -0.10713981 -0.4553987 -0.09105857 0.088812895 0.041506134 -0.073870696 0.0450554 -0.57856566 -0.22861204 0.11286987 -0.038085796 0.11827725 0.18234383 -0.01729045 0.010628663 0.10866024 0.13413335 -0.17105116 0.115191914 -0.04923099 -0.083931156 -0.18054736 0.22291486 -0.11567866 0.08771213 -0.32233632 -0.066282466 0.12512788 -0.009571522 -0.040800713 -0.08404002 -0.24474686 0.193248 -0.47740975 0.12479664 0.06966193 -0.20198655 0.06343657 0.013962959 -0.34053963 -0.096927114 -0.0025481153 0.079868495 -0.20949532 -0.0074206106 0.39413553 -0.16576265 0.407641 0.12907398 -0.23365968 0.048991337 -0.06012596 0.063847505 0.044799678 -7.462544e-06 -0.15112472
timesig:4/4 0.10525259 -0.40125635 0.18597393 -0.2782118 0.036759622 -0.035288252 -0.16340494 -0.14455658 0.25618923 0.08779554 -0.03796314 -0.14337498 0.040555723 -0.17758554 -0.30528817 0.19567446 0.16393825 0.12733352 0.58009344 -0.31579426 -0.34479555 0.20314297 -0.16269518 -0.23896886 -0.16447678 -0.032583926 0.098311424 0.1348825 0.14790118 0.1682873 -0.089732334 -0.5295063 -0.2188817 0.07209928 -0.41086832 -0.015638018 -0.09870974 0.10729025 -0.56040835 -0.24801534 0.24350378 -0.48973224 -0.06041216 -0.101729706 -0.050901737 -0.4549533 -0.08998 0.24742723 -0.0835852 0.18558525 0.16350532 -0.3390104 -0.16534954 0.092106216 0.20120873 0.19087358 0.29567248 -0.16852768 -0.23608382 0.2611905 0.05369122 -0.19182074 0.2423931 -0.0023271032 -0.06775418 -0.06386394 0.26778862 0.18528607 -0.011441323 -0.06835088 0.24762325 0.13451576 0.08274585 0.2406175 -0.09477774 -0.20788227 0.13641496 -0.28730628 -0.021094013 0.19603924 0.023448318 0.16305025 -0.16998436 -0.18209523 -0.009666857 -0.03186681 0.14616553 0.10443357 0.05792171 0.48436514 -0.260661 0.077000044 -0.03049465 -0.27171624 0.09363634 -0.32216352 -0.034437906 -0.1076196 0.14362366 -0.17056227
g1665464 0.025294526 -0.2751263 -0.17236495 -0.13910936 0.12978567 -0.19738612 -0.018372308 -0.16657913 0.40017352 0.13469435 0.030761354 -0.2247009 -0.14101298 -0.33243975 -0.15570031 -0.036864214 -0.25168535 0.17168736 0.060502835 -0.24080501 -0.32382146 0.30068025 -0.10566329 -0.4806886 -0.4016755 -0.07869636 0.053646192 0.19303691 0.16090932 0.071940646 -0.24269599 -0.54298925 -0.23055416 0.23190786 -0.57782406 -0.009494271 -0.083928496 0.031006377 -0.3588323 -0.10459915 0.00777847 -0.2968536 -0.014666707 -0.07311324 0.040469624 -0.2663347 -0.07613859 0.07937404 0.026632389 0.08760046 0.10190149 -0.08544854 -0.1540602 -0.12868153 0.13856418 0.29771444 0.141677 0.019227691 -0.19022825 0.27051148 0.06015667 -0.13146037 0.07145854 -0.15175208 -0.1489292 -0.08161799 0.078284495 0.14407915 0.16732982 -0.3100158 0.12895575 0.2556584 0.17756353 0.18529548 -0.050971124 0.0036578577 0.17016715 -0.571092 -0.024337184 0.28553835 -0.20247091 0.017897924 -0.087480016 -0.26003644 0.039166372 0.21390487 -0.11993251 -0.121033065 -0.02828424 0.23833866 -0.11014157 0.4060462 0.1874797 -0.2689054 -0.08084092 0.0040259254 0.07404363 -0.03744349 -0.16569546 -0.1933357
g1696216 -0.101956144 -0.2249714 0.05892943 -0.30657193 0.36243957 -0.12048266 -0.22184154 0.0026809701 0.44753978 0.023369977 0.045739498 -0.15731467 -0.049227614 -0.31800693 -0.5005256 0.14225234 -0.22802888 0.1637774 0.22930677 -0.2278522 -0.111979865 0.103339896 0.0026188851 -0.5579707 -0.2885781 -0.0011005878 0.11893206 0.24118432 0.11846853 0.36956835 -0.114890166 -0.5291762 -0.13434464 0.08098797 -0.3467656 0.07353168 -0.11659885 -0.1686783 -0.26793024 -0.2157971 0.07710632 -0.17021044 0.07753371 0.03138216 -0.006113087 -0.39558658 -0.08077853 -0.03934143 -0.048857566 0.018739954 -0.0911703 -0.51781887 -0.3988884 0.28493673 -0.122114085 0.14521688 0.20832586 0.009037969 -0.09422925 0.03358692 0.1393758 -0.009894968 0.061186068 -0.08324295 0.10214788 -0.07841547 0.089605875 0.051254705 0.087878406 -0.2817391 0.15775374 0.17651051 0.0095428955 0.08662895 -0.07893801 -0.21548705 0.14595994 -0.5370867 0.1785751 0.19128196 -0.19445872 0.016563335 -0.2031808 -0.12204766 -0.10907739 -0.0694609 -0.05894714 -0.17160244 -0.03119429 0.077185236 -0.27645588 0.31334516 0.096339315 -0.08215116 -0.074691355 -0.016736189 -0.042287342 -0.1551219 0.13134737 -0.05067634
g1662581 -0.060492646 -0.34353653 -0.08802109 -0.28790593 0.0075293696 -0.007012641 -0.34200907 -0.2450436 0.49848065 0.06849196 -0.031107068 -0.015545048 -0.12399258 -0.07853364 -0.49612486 0.17498253 -0.17327948 0.25596154 0.26238894 -0.1730992 -0.16367297 0.18117431 -0.09602277 -0.17762336 -0.3210466 -0.14890972 0.08709752 0.19436194 0.2560924 0.25660554 -0.07048146 -0.5309339 -0.071303606 0.26085883 -0.30919564 -0.2775875 -0.2081195 -0.06774034 -0.43206885 -0.23499599 -0.00021154704 -0.2155117 -0.08112312 -0.009139438 -0.14168543 -0.31849557 0.11191244 -0.024411954 -0.034106817 0.16232795 0.1074702 -0.36448088 -0.29947856 0.2965212 -0.21918644 -0.028197933 0.13727096 -0.22113219 -0.00047462943 -0.021302149 0.36135435 -0.2503404 -0.015892863 -0.22123879 -0.10671531 -0.20042485 0.20138898 0.13391751 -0.10635531 -0.1629529 0.26076996 0.20291512 0.09256596 0.08446773 -0.10653682 -0.18438493 -0.03485249 -0.596634 0.21973121 0.115125746 -0.2209633 -0.103344224 -0.13761657 -0.2561834 -0.11573268 -0.07715017 -0.039063517 -0.04102834 0.09229588 0.36568338 -0.26721618 0.26120773 0.03360928 -0.13345376 0.058467533 -0.04741399 0.051889338 0.020163465 -0.063588254 -0.25618154
g1697177 -0.06422602 -0.16090174 0.20571394 -0.15101987 0.1783703 -0.026827693 -0.05945149 -0.018627428 0.22471362 0.033944197 0.30946404 -0.26106298 0.018236494 -0.21260343 -0.39436853 0.015508646 -0.27566913 0.1684008 0.38672197 -0.32922605 -0.2287916 0.42322186 0.07031411 -0.7232323 -0.30440164 0.059775427 0.08583436 0.059713587 0.2839618 0.17696899 -0.30554792 -0.42554238 -0.30986667 -0.02572455 -0.38469407 0.03310685 -0.15573417 0.07878499 -0.3254317 -0.19934984 0.059468362 -0.2034491 -0.061896246 -0.07486647 -0.10244936 -0.22355455 -0.17858434 0.12665695 -0.092486426 0.06420497 0.10017126 -0.23820335 -0.41325274 0.16863549 0.045331586 0.14939429 0.20900464 -0.006934329 -0.22574204 0.15203977 -0.07600095 -0.14003842 -0.22843386 -0.15715039 -0.11134863 -0.13933128 0.13772194 0.14465164 0.13941416 -0.35599115 0.22314277 0.24182823 0.035174847 -0.0011798013 -0.21018158 -0.09617906 0.13543527 -0.5391384 0.10986917 0.2880807 -0.27544087 -0.056749787 -0.12540703 -0.23319547 -0.09267285 -0.020700438 -0.18167603 -0.1733468 0.07044952 0.13688272 0.016218638 0.30071416 0.22320262 -0.2808745 0.009163081 -0.09435669 0.03585914 -0.044793338 0.24357086 -0.1553314
g1719280 -0.0900941 -0.3576315 0.31238702 -0.13875441 0.08290657 -0.18879788 -0.31467286 0.008752638 0.34615007 0.01477941 0.13956596 -0.062880136 0.04439247 -0.24491955 -0.26246253 0.1566921 -0.078419134 0.123989835 0.35124227 -0.1562967 -0.18365754 0.38148394 -0.010784822 -0.59883577 -0.3150755 0.07814514 0.1504654 -0.043413606 0.13451837 0.3770093 -0.10284878 -0.4377726 -0.2232829 0.0961348 -0.32735273 -0.15022524 -0.095932096 -0.09024964 -0.28050894 0.020772066 0.18232095 -0.30674538 0.07303802 0.18606852 0.093334146 -0.10459246 -0.07202299 0.2012564 0.029802065 0.08082876 0.0052255336 -0.35643423 -0.35189977 0.21414483 0.044715304 0.14300564 0.12479536 0.113257214 0.053819463 0.19101447 0.13890903 -0.06576626 0.122253776 0.048670504 0.0038205008 -0.16877434 0.14182825 0.0087435115 0.20859806 -0.24200448 0.13362738 0.04916262 0.16675964 0.05237564 -0.13422658 -0.36653605 0.16622251 -0.6422939 0.24270351 0.005182492 -0.245953 0.14282942 -0.038777202 -0.22015701 -0.18579398 -0.10219883 0.050700195 0.03479279 -0.013515683 0.27730888 -0.188505 0.32094824 0.1857192 -0.026265778 0.0061620236 0.059274968 -0.094072685 -0.052034106 -0.062912874 -0.04297699
dur:3 -0.1644584 -0.032562032 -0.053796723 0.058745317 -0.015432655 -0.13130751 -0.21323559 0.48170963 0.62932014 0.08895411 0.3482797 -0.25833294 0.0231667 0.04652468 -0.314483 0.19147581 -0.12714306 -0.29629442 0.17596564 0.23522078 -0.11770122 0.10369905 -0.14533171 -0.5948892 0.30805248 0.028936516 -0.23929961 0.3160876 0.15798014 0.33666918 0.04999758 -0.01356363 -0.3195032 0.18661448 0.30804878 0.20376061 -0.63025475 0.33037293 -0.22303224 -0.14236426 -0.042595465 0.0029068922 0.5359138 -0.061018117 0.006432259 -0.26482913 -0.31805754 0.1514106 0.2470242 0.20209002 -0.07442311 -0.12876007 -0.36677045 0.16594549 0.28470346 0.052802753 0.077069975 -0.12827192 -0.08207255 0.13390125 -0.06360865 -0.17011233 0.5208654 0.043291926 -0.03623213 0.18348567 -0.06391937 -0.29960188 0.054600228 -0.119901896 0.08401476 0.14216748 0.015477465 0.1728024 0.12770972 -0.2558922 -0.4411924 -0.120379575 0.3215206 0.04274261 -0.7269766 -0.2605492 0.07388285 -0.62783825 -0.07819266 0.34865388 -0.28438294 -0.7014345 0.026055833 0.5783203 0.11940062 0.11960736 0.09118656 -0.610512 -0.3203964 0.027547164 -0.06556541 0.3165204 0.44272122 0.50700074
g1664503 0.0029920933 -0.36133304 -0.071885906 -0.3178037 0.08708546 -0.09202898 -0.10639207 0.074343935 0.54226893 -0.09222494 -0.055715986 -0.13390848 -0.047873605 -0.3203706 -0.3565799 0.4199481 -0.28921163 0.21439335 0.4511163 -0.11992238 -0.11149271 0.078855984 0.1064148 -0.2571496 -0.12379576 -0.25491324 0.13912281 0.115670554 0.091133304 0.24205826 -0.23081475 -0.57343173 -0.1961609 0.026421487 -0.11081228 0.09168244 -0.25707948 -0.019960014 -0.42332402 -0.021845065 0.046247732 -0.2890038 -0.07413113 0.13668054 0.21625794 -0.4831478 -0.17247754 0.10680318 0.11760219 0.10508909 0.12357929 -0.22134082 -0.41507873 0.044612654 -0.21216066 0.15346536 0.27207556 -0.018818159 -0.27285188 0.114996634 0.26899675 -0.18284507 0.25585186 -0.0047273496 0.20821333 0.071057394 0.32875478 -0.16095024 -0.023495452 -0.27599245 -0.078021206 -0.04485744 0.141991 0.030564973 -0.086680934 -0.12171279 0.11695575 -0.5422854 0.120122544 0.21251808 -0.0016431876 0.18543391 -0.15772162 -0.13451242 0.14359468 0.004564409 0.010453119 -0.35153076 -0.025322758 0.19576254 -0.20850706 0.3913273 -0.0016479031 -0.10511814 -0.07602875 -0.29209724 0.072687775 -0.24483219 0.19226097 -0.08480869
g1690450 0.058699895 -0.24336809 0.21031179 -0.06731043 0.14894627 -0.32337058 0.034332406 -0.124671884 0.41496515 0.056247383 0.22067678 -0.09559911 0.06970556 -0.18224974 -0.3454968 0.11118451 -0.17677213 0.09828266 0.29473734 -0.17050035 0.06979324 0.500104 -0.15587927 -0.45512092 -0.3548763 -0.029522188 0.063534796 -0.054340564 0.109803006 0.34517777 -0.19860826 -0.331418 -0.34356698 -0.041067243 -0.115461946 -0.10145254 -0.32657087 0.19156441 -0.09531372 0.064185254 -0.0379739 -0.18341944 -0.18662979 -0.11388972 0.0463023 -0.26737618 0.15404297 0.23296055 0.03242021 -0.06439323 0.26565722 0.015132563 -0.22118202 0.020568548 0.2888192 0.3120445 0.1413565 -0.21964401 -0.031125732 0.12686513 0.083175056 -0.04992897 0.016612917 -0.20470597 0.20727287 -0.32799453 -0.08762775 -0.060177624 0.25825992 -0.4927393 -0.037442446 0.18011682 0.18062612 -0.028725082 0.071325816 -0.10852007 0.13446984 -0.58696985 0.1133402 0.09618071 -0.29483873 0.04306117 -0.18414864 -0.5208173 -0.093309924 0.24511842 0.04262955 -0.10742079 0.18024848 0.3423171 -0.27563345 0.5714426 0.1759023 -0.41230395 0.1325133 0.014200755 -0.04165772 -0.11737757 0.03136207 -0.44656342
g1721202 0.0745582 -0.24757732 0.37927997 -0.25430074 -0.03171169 -0.4533501 -0.1341922 -0.07630054 0.415364 0.26329726 0.18969299 0.18383755 -0.07882239 -0.37406173 -0.3886168 0.16424279 -0.037127588 0.20322013 0.111065455 -0.2705605 0.04907766 0.11768297 0.061769858 -0.44156256 -0.24940035 -0.22467452 0.25176343 -0.0789969 0.24040513 0.36938417 -0.053616498 -0.37754858 -0.23621306 0.09541245 -0.12316102 -0.21927546 0.052206118 -0.13945471 -0.40694696 -0.2018588 0.02714454 -0.16068682 -0.028668517 0.17429236 -0.08153384 -0.35575843 0.1445544 -0.09142863 0.0778274 0.3421356 -0.31625995 -0.34826 -0.47282302 0.38885853 0.07046482 0.20683847 0.1337925 0.25427774 0.27291712 0.0321662 0.21487775 -0.05972862 0.056822315 -0.3554142 -0.25799212 -0.08920792 0.25153935 -0.2252616 0.0799221 -0.3801739 -0.08748584 0.30955297 -0.012286831 -0.28912354 -0.1723922 -0.40654632 0.13428174 -0.79907453 0.122913145 0.08867647 -0.48790848 0.17031348 -0.11262061 -0.37136176 0.090907685 0.14731972 -0.038298182 -0.2166649 -0.15654422 0.3761601 -0.3140519 0.4171913 0.08756905 -0.05807782 -0.18513508 -0.027996473 0.04317945 0.20125818 -0.0063546426 -0.084285535
g1691411 -0.123041175 -0.49913427 -0.37496376 -0.18169098 0.06490764 -0.28067935 -0.2656009 0.15336145 0.4733324 -0.052121483 -0.12761828 -0.14578131 -0.3186787 -0.093731664 -0.14485869 0.17596766 -0.17247097 0.3008857 0.36155474 -0.060535908 -0.082225814 -0.006283061 0.41709957 -0.28644693 0.018068949 0.019962749 0.04336607 0.12223158 0.036986943 0.15748687 -0.48505658 -0.6969367 0.038866315 0.08205139 -0.113778375 0.06816611 -0.11208696 -0.12294276 -0.2565793 -0.20484346 0.39490008 -0.5458929 0.00930677 0.19818607 0.046913028 -0.29806373 -0.042551395 0.1518353 -0.04936294 -0.089516506 0.07980208 -0.22418016 -0.34538695 0.39679715 0.008938743 0.16642867 0.040282022 0.09864966 0.01002167 -0.02785751 0.37721717 -0.0023107948 0.31558728 -0.03552348 0.22271563 0.0056609865 0.3167552 -0.15604557 0.10992373 -0.16769376 0.06580692 -0.16730879 0.1115625 -0.11386407 -0.026574632 -0.19236939 -0.07448615 -0.79323 0.44853663 0.05428987 -0.07730366 0.016937342 -0.22257063 -0.24729104 -0.26734954 -0.3699494 -0.21066457 -0.08930276 -0.030919803 0.51679975 -0.09180599 0.18411164 0.10780431 -0.41675806 0.0281276 -0.013736069 -0.19641457 -0.053006403 0.26308557 0.049410727
g1665466 -0.022691187 -0.409139 0.13263662 -0.21265638 0.15825792 -0.29968268 0.19180402 -0.16407679 0.29744536 -0.017468216 0.09499549 -0.25144 -0.058121543 -0.5212927 0.0045583057 0.09130514 -0.2766967 0.10514233 0.3742348 -0.20102322 -0.08750046 0.16855933 -0.041091945 -0.1918492 -0.27588436 -0.07917136 -0.10892521 -0.06985197 0.33420333 -0.013145812 -0.06500971 -0.5053235 -0.22651282 0.1333146 -0.4531144 0.10463669 -0.16689813 0.11489446 -0.51449764 -0.412169 0.105566144 -0.41261733 -0.09067428 0.0031442046 -0.078599654 -0.18858795 0.1258338 0.32931462 -0.26770744 0.022128912 0.10514837 0.04227357 0.09504903 -0.24834873 0.42377833 0.26593733 0.15301019 -0.26332554 -0.10383066 0.3535582 0.1610408 -0.25751457 0.22186303 -0.19403678 0.1783262 -0.4934652 0.027629565 -0.057183318 0.33123344 -0.7926241 0.24716148 0.19895492 0.29337165 0.020198008 0.2409265 -0.3169527 0.06811547 -0.4959641 -0.056852363 0.18217489 -0.43464777 -0.23513165 0.021775788 -0.5010922 -0.15014094 0.26704684 -0.033228785 0.072575964 0.29651484 0.13994688 -0.17113246 0.4529526 -0.019599158 -0.055333626 0.10208649 0.012390022 -0.039818157 0.12923037 -0.24743046 -0.514823
g1692374 0.0982783 -0.26631343 0.17517601 -0.54066324 0.27238825 -0.138567 -0.30202138 0.17574443 0.6634347 -0.004407589 0.31142345 -0.3434126 0.070425235 -0.09020649 -0.17065187 0.33562443 -0.069986284 0.17408383 0.4055118 -0.28172904 -0.08448095 0.074749134 0.05876587 -0.35291317 -0.36345947 -0.038620453 -0.1971221 -0.25463283 0.19137241 0.18002757 -0.45798203 -0.64083713 -0.30446205 0.20335633 -0.14913371 0.0696713 -0.034476705 -0.05918727 -0.538698 -0.1490496 0.42473775 -0.24668922 -0.039636 0.111711435 -0.29024702 -0.69923407 0.015196856 -0.045737706 0.20182748 0.3253366 0.25186318 -0.18905437 0.11349271 -0.06685522 0.13310102 -0.030313605 -0.21073517 -0.03747164 0.034064498 0.16271439 0.29659462 -0.24835013 0.07526902 -0.14342867 0.15903561 -0.3640594 -0.0606298 -0.031145677 0.11246189 -0.09768546 0.051542614 -0.24340615 0.17862175 -0.06816895 0.016440272 -0.11044699 0.23008128 -0.49671486 0.17854448 0.3152375 0.088438034 0.008750902 0.044170216 -0.23291974 -0.36676362 0.2897997 -0.089212745 0.037889935 -0.044015966 0.27376318 0.14870617 0.44188416 0.2576047 -0.3965097 0.088474646 -0.4119705 0.0964621 -0.2642492 0.093518 -0.34076643
Users-wu_ivan-Desktop-Ivan-CS_Senior_Project-midi2vec-midi2edgelist-MIDI-Richard_Dwyer_1 0.05852007 -0.100196205 0.12710787 -0.25160062 -0.111171454 -0.059266366 -0.34078786 0.3110426 0.7551052 -0.033533514 -0.07200775 -0.36797574 0.46340942 0.14380385 -0.3403138 0.34728065 -0.28875145 0.32815742 0.31832263 -0.09408695 -0.09803498 0.3510285 0.053609196 -0.4261378 -0.29583362 -0.028907089 -0.04204449 0.042565312 0.25064114 0.255763 0.13977751 -0.5624792 -0.1681453 -0.38225624 0.23122332 0.15858276 -0.18692419 -0.06512036 -0.31913283 -0.17913021 -0.15150149 0.35668144 0.21585311 0.08420117 -0.377644 0.4233557 -0.55291283 -0.16299193 -0.008677491 0.18539594 -0.21129079 -0.112869725 0.32049266 0.34792107 0.027415518 -0.2839831 0.0069426997 0.2086588 -0.47921777 -0.12589686 0.20948324 0.009926094 0.43857676 0.40116253 0.093500964 -0.11641559 0.017612105 -0.3468273 0.14310151 -0.58533514 0.17247352 -0.027466277 0.11998141 0.057739995 0.03439984 0.28211063 -0.4839405 -0.29987356 0.3214432 0.2415855 -0.5312748 -0.24811955 0.31029493 -0.40579355 0.18038127 0.45677337 -0.29716137 -0.62564003 0.16514741 0.11739402 -0.45419312 0.17297459 0.15911229 -0.35753697 0.014632722 0.2087265 -0.051776573 0.43346867 0.22811353 0.08779919
g1697179 -0.0058382987 -0.49724692 0.29169115 -0.32629606 0.4660348 0.02537892 0.13101111 0.20227657 0.12722959 0.21897176 0.31334233 -0.116518155 -0.16057009 0.024164287 -0.2399698 -0.12521127 -0.5475311 -0.03359599 0.5215848 -0.65292406 -0.29144657 0.3327707 -0.23071615 -0.64901644 -0.4928049 0.049752016 0.2757469 -0.008023167 0.5644368 0.01177323 -0.004553264 -0.4282101 -0.37627667 -0.113034286 -0.5843057 -0.05007139 -0.050656714 0.079600245 -0.15360048 0.013430731 0.10642476 -0.2345271 0.06129372 -0.36982965 -0.07098281 -0.06972257 -0.16279905 -0.125742 0.040132068 0.23932873 0.087399274 -0.2945533 -0.27544576 0.1386337 0.3868217 0.041249808 0.0140498355 -0.10073448 0.060863458 0.095690824 0.011910929 0.07340598 0.48041356 -0.24018742 -0.07094418 -0.23695663 0.31205952 0.18515798 0.03274692 -0.28331748 0.44460258 0.3530227 0.10904497 0.048978854 -0.11385475 -0.113153905 0.22211242 -0.20471832 -0.21002218 0.027287671 -0.16649826 -0.24672113 -0.29118484 -0.17454426 0.1938401 -0.21919832 -0.14081052 -0.15477434 0.13957025 0.2095476 -0.25203177 0.42688328 0.10032299 -0.6927723 -0.085045524 -0.12928642 -0.33360642 -0.16824092 0.05164734 -0.4396731
Users-wu_ivan-Desktop-Ivan-CS_Senior_Project-midi2vec-midi2edgelist-MIDI-Ed_Reavey_9 -0.096261226 -0.02544476 0.0024628208 -0.19100645 -0.37518063 -0.1816479 0.22997437 -0.15539122 0.26345196 0.061329454 0.15786979 -0.11171975 -0.07124228 -0.081658624 -0.19049689 0.17472564 0.01902326 -0.32688174 -0.10506076 -0.10451205 0.08049951 0.690365 -0.19639604 -0.6089137 -0.14567944 0.080314025 -0.09540037 0.007544974 0.37893793 0.41565967 -0.0752315 -0.07042318 -0.51861775 0.31534213 -0.469893 0.48757127 -0.023727622 0.44855258 -0.17459737 -0.10330518 -0.19428717 0.2871757 0.34151733 0.07900911 0.18023974 -0.20494568 -0.20793493 -0.036590863 -0.19490407 -0.07041894 0.260755 -0.21058507 -0.52623445 0.29212478 0.097004324 0.108859874 0.47796047 -0.106500365 -0.4595303 0.124115765 -0.16571414 -0.070310876 0.4859088 -0.2588991 -0.060334306 0.0142030055 0.20912401 -0.124702334 -0.06711968 0.20902628 0.09475147 -0.44819194 -0.011137864 0.078997694 -0.3033631 -0.8731613 -0.014804463 -0.49784517 0.15460245 0.054083142 -0.5458913 -0.28529575 -0.21798542 -0.4816306 0.058949336 0.45498982 -0.47026318 -0.5166448 0.12950428 0.1612707 0.12951763 -0.09155345 -0.29179788 -0.3200387 0.18000264 -0.3195294 -0.03671826 0.26914558 0.1555178 0.19455452
Users-wu_ivan-Desktop-Ivan-CS_Senior_Project-midi2vec-midi2edgelist-MIDI-Joe_Liddy_0 -0.13191669 -0.2474034 -0.2205641 0.16119362 -0.078778766 -0.118966475 -0.036559675 0.15286262 0.5826171 0.0073158476 0.05991602 -0.26200488 0.36697364 0.21276361 -0.008653276 0.24079391 0.016694387 0.09337121 0.7310387 0.23606306 0.045336667 -0.033214424 -0.5865839 -0.4007756 -0.057076223 -0.1882198 -0.50605625 -0.0041872463 0.13107704 0.13207895 -0.15865557 -0.668393 0.068576925 -0.24244343 -0.24482445 -0.24605896 -0.21240062 -0.017412499 -0.058119934 -0.0769407 0.1481925 -0.0285079 0.20128977 0.3060556 0.009274665 -0.24827245 -0.120752335 -0.34375584 -0.051092397 0.523402 0.40362763 -0.0015079267 -0.5069821 0.3563545 -0.076835856 -0.13981912 0.2691725 0.027598914 -0.6382808 0.117367126 0.123021856 -0.24744824 0.6669927 0.12255659 -0.53077877 0.2004911 -0.24178308 0.19361438 0.11184846 0.25095403 -0.29408875 -0.004794505 0.1909751 -0.042271513 0.33210823 0.7399697 -0.178181 -0.41496035 -0.108377635 -0.05613582 -0.66444707 0.047295623 -0.48819348 -0.1990815 -0.029660702 0.29312697 -0.2349166 0.42326844 -0.1434613 0.54088116 -0.30644447 0.2617987 -0.15253653 -0.33214796 -0.3221612 0.18604223 0.16734716 -0.21936166 -0.43706584 0.11098901
dur:1 0.31965405 0.08874824 -0.3089812 0.19082448 0.109562956 -0.08199723 -0.019070683 0.16599026 -0.2049223 0.00972178 -0.092529625 -0.020943481 0.66554445 0.24489057 -0.44231775 0.1473499 0.51921165 0.0582815 0.84931165 0.21218096 -0.47901857 -0.18692 -0.4290954 0.028029328 -0.024350796 0.33685872 -0.4402963 -0.113294564 -0.037082482 0.041670036 -0.34380448 -0.32610077 -0.11423987 -0.28134674 -0.5361715 -0.44274682 0.07032354 0.10479732 -0.19404268 -0.054541342 0.2649047 0.064311504 -0.1720249 0.17932422 0.25352407 -0.27060017 0.1130042 0.14781788 -0.14609434 0.46874523 -0.0748275 -0.15814699 -0.35413393 0.4143905 -0.45821214 0.19973457 0.16454792 0.01988645 -0.31097183 0.3826074 0.22861646 -0.4269961 0.95801944 -0.019582553 -0.34369895 0.23173323 -0.11626844 0.26926258 0.09247792 -0.15827517 0.038304564 0.04546007 0.0075651063 -0.009510456 0.2594014 0.30221272 0.23029001 -0.5057976 0.04476168 0.13522774 -0.44050357 0.27666602 -0.32054868 -0.6456172 0.12359919 0.36077142 -0.31589082 0.2811547 -0.25591967 0.41108605 -0.30398515 0.5007568 -0.060768954 -0.21099342 -0.09285901 -0.17559837 -0.101477794 -0.20692778 -0.5388089 0.11145776
g1637595 -0.16169152 -0.60887 -0.09372822 -0.23423976 0.117856406 -0.18565711 -0.31919962 -0.0039765723 0.33528852 -0.2506566 0.06989192 -0.11991866 -0.41745305 -0.08092346 -0.90043116 0.5172927 -0.17411494 0.1626504 0.24303053 -0.019979708 -0.2941599 0.05394123 0.28929034 -0.191395 -0.25057378 -0.17073926 -0.2748516 0.25872424 0.016644608 0.08329693 -0.123822466 -0.24584335 0.03145457 -0.030917373 -0.020840969 -0.20178275 -0.4151557 -0.0745204 -0.19224206 -0.17207639 -0.10931968 -0.8536948 0.18852216 -0.15473706 0.07087599 -0.13841942 0.027728196 -0.26370758 -0.4738601 0.27409798 0.0043344647 -0.11834948 -0.25862265 0.017039586 -0.11992769 0.27940875 0.3584565 0.15241726 -0.6471365 -0.19959538 0.34053415 -0.44015872 0.23498851 -0.15610081 -0.40666762 -0.24877329 0.31717548 -0.17456084 -0.13849272 -0.05713256 -0.16962655 0.07956997 -0.34505647 0.190337 -0.31151956 -0.027244447 -0.24850784 -0.43930215 0.48210883 0.33816049 -0.23427776 -0.07649046 -0.22263823 0.0582228 0.044115424 0.14920147 -0.28887686 0.06577192 -0.00645851 0.28355646 0.23090784 0.19187747 -0.0072438205 -0.38462797 0.17597441 -0.009896459 0.03291317 0.11119917 -0.0011598736 0.033619538
g1689488 0.14307997 -0.08414287 -0.21992677 0.030536253 0.13472304 0.012327272 -0.3463508 0.32779008 0.10975849 -0.011739764 -0.1599924 -0.1799786 0.29415303 0.11499357 0.08501316 0.29406536 0.03761414 0.22508766 0.018439889 -0.24501215 -0.16666965 0.07051384 0.3060949 -0.22126752 -0.45858213 0.13427414 -0.17990185 0.2481913 0.2674773 -0.105507046 -0.478394 -0.85830724 -0.25179675 0.22558402 -0.06762925 0.0029934063 -0.06197071 -0.07641305 -0.09346704 -0.38201222 -0.07725182 0.07466935 -0.20896003 -0.13505183 0.09498574 -0.033339467 -0.20189582 0.1221471 0.098023005 0.089469895 0.11789026 -0.66717345 -0.3865179 0.45057604 0.054197658 -0.09182182 0.36415192 -0.24478348 -0.5905544 0.06437215 0.31832883 0.25263292 0.45311448 0.36756435 0.3692886 -0.47407424 0.34071696 -0.0051534595 0.48208562 -0.50529087 -0.29296952 0.017984785 -0.04565051 0.09727273 -0.17996523 -0.30496812 0.16295111 -0.2978399 0.12501141 0.23743628 -0.17936382 -0.009402203 -0.2768529 -0.19761857 -0.21920364 -0.25151068 -0.09676227 -0.117530055 -0.02753194 0.3545952 -0.18342985 0.08743431 0.1016443 -0.09220986 -0.06321068 -0.05215773 0.37286878 0.395094 0.36810845 0.04964281
dur:2 -0.06895581 -0.13106853 -0.05328743 0.042818993 -0.26405722 0.21078041 0.13827741 0.35906 -0.072988905 -0.13649113 -0.29851043 0.48746625 -0.13515842 0.105951056 -0.0992064 0.17558722 -0.20930557 -0.06442142 -0.1115594 -0.11916467 0.19198574 0.46978322 -0.22394279 -0.07732457 -0.1516154 0.29770702 -0.05815063 -0.10663252 0.43594563 0.65775514 -0.26266772 -0.69306767 -0.30893943 0.38912705 -0.46434596 -0.06698902 0.04303951 0.06413949 -0.23692325 0.1551585 -0.14903732 -0.2655562 0.12858325 -0.2356141 -0.07838686 0.23946185 0.08206486 0.082951136 -0.0572734 0.07869222 -0.033577677 -0.11036473 -0.4882398 0.2984574 -0.06685366 0.3171485 0.18947168 0.08947798 -1.024868 -0.2505956 0.70310605 -0.4902736 0.75631803 0.39247605 0.23934926 -0.3214253 0.044219956 0.37014896 -0.29415306 -0.84330875 -0.3502526 0.2445236 -0.057719544 -0.0029667832 -0.19049181 -0.32149112 0.2834719 -0.21283716 0.11939774 0.37826958 -0.012994085 -0.12236508 0.18880914 -0.60953987 -0.26122475 0.064631455 0.16283545 0.122314 0.39004704 0.162941 -0.14192334 0.39444783 -0.17277524 -0.11434624 0.16531824 -0.15734652 -0.18802865 0.15524277 -0.05043929 0.5566434
dur:5 0.22812213 0.11207253 0.020766499 -0.5660945 0.14253992 -0.3902175 -0.005315392 0.25299257 0.28142548 0.22093196 -0.43126634 0.30114263 0.06594076 -0.23095973 -0.1478378 0.09989919 -0.10669849 0.3687074 0.15490362 -0.1467492 -0.09573657 0.39032888 -0.27640027 -0.6503526 -0.40269575 0.4005051 -0.08474134 -0.071681365 0.3377999 -0.14336413 -0.46710792 -0.50230426 0.2899686 -0.40300316 -0.40145862 0.09970511 -0.117145784 -0.28890595 -0.44399792 0.0444326 0.3523594 -0.07635558 0.19581722 0.03572799 0.13504826 0.34482875 -0.075085044 0.5284698 0.13632886 0.5228976 0.32359123 -0.2982536 -0.03015239 0.58602715 -0.643426 -0.3842584 -0.26982278 0.24267961 -0.19914134 0.05369373 -0.1535322 -0.44216096 0.31646225 -0.11391421 -0.24530284 -0.9819855 0.37630767 -0.7397784 0.16816011 -0.27656347 0.33873838 0.089255884 -0.070625715 -0.05943366 0.02471099 0.72174114 -0.24146666 -0.007927333 -0.030265547 -0.18355662 -0.2641284 -0.10539339 0.005359472 -0.44263792 -0.12581988 0.6702734 -0.17874928 -0.15616372 0.6294199 0.44684118 0.13538088 0.4885998 0.13517065 0.30289096 0.60422367 0.36886054 0.3667147 -0.035904408 0.25448853 -0.06901242
g1667388 -0.3289819 -0.4254891 0.4521422 -0.19769962 0.3171595 -0.09068571 -0.14939667 -0.08631246 0.84624815 0.41438824 -0.094233595 -0.23348834 -0.08790858 -0.1701971 -0.30256325 0.31423318 -0.32576564 -0.071348764 0.5729216 -0.10660842 -0.09913587 0.031565275 -0.6437066 -0.2533645 -0.1466107 -0.38683027 -0.12070851 -0.0810719 0.17829956 0.1761893 -0.07187874 -0.68016636 -0.14538255 0.059499953 -0.7020955 0.08571941 0.14261699 -0.10201055 0.08664722 -0.36998802 -0.050034363 0.017872354 0.10613706 0.21147248 0.043471463 -0.27180612 -0.32306165 0.17784859 0.47952214 0.21218847 -0.06467034 -0.40341955 -0.04525474 -0.14014848 0.07822695 0.43236402 0.015434749 -0.3568698 -0.15140176 0.10056168 0.597615 -0.21363762 0.19769253 0.011350069 -0.2860669 -0.5245971 0.25338152 -0.06356468 -0.18759456 -0.45151186 0.26359215 0.28393993 0.026170406 0.2695416 0.030919023 0.0143220555 -0.09907774 -0.29567158 0.29250118 0.057060312 0.22667058 -0.32385948 -0.049546998 -0.24614401 -0.07308273 0.051045727 -0.35342434 -0.20126529 -0.19165671 -0.19735155 -0.39315468 0.2471366 0.1849175 -0.079039454 0.2027718 -0.007962279 -0.058648165 -0.014761035 -0.35804197 -0.007866232
g1697176 0.047193885 0.5686341 -0.12603027 -0.29285693 0.081647135 -0.23981184 0.18525079 0.2909561 0.0074325167 -0.03933191 0.30354363 0.24645197 0.017687142 -0.06309481 -0.35168105 0.0020989478 0.0612593 -0.05717354 0.30208528 0.49746302 -0.19594648 0.62370086 0.046187267 -0.672024 -0.31230903 -0.065660745 0.0998749 0.103166275 0.58512557 0.3408019 -0.2792259 -0.8347641 -0.09987371 -0.02144636 -0.73849857 -0.00077293767 -0.3520965 -0.066025265 -0.037044965 -0.0558522 0.10986242 -0.18207684 -0.22065736 -0.5277683 -0.25823072 0.11044531 -0.035793785 -0.19900057 -0.23003824 0.37098262 -0.05325042 0.3057757 -0.08113527 0.13401127 0.09748244 0.009759408 0.30502412 -0.28112873 -0.41219738 -0.11527241 0.2507312 -0.13777198 0.6849768 -0.12247531 -0.24424805 -0.032948136 0.246602 0.2784511 -0.1338803 -0.4350646 -0.008286209 0.35312536 0.10205351 0.18503758 -0.019233491 -0.28417656 0.06865566 -0.325267 0.11164514 0.46756995 -0.10116653 -0.2683142 -0.029745439 -0.2657671 -0.018485619 0.023837341 -0.04864243 -0.055641986 0.012450598 0.07996355 -0.11139943 0.17967686 0.05475124 -0.032935705 -0.26665112 -0.35008952 -0.04285808 0.010691423 0.3725502 -0.1150469
Users-wu_ivan-Desktop-Ivan-CS_Senior_Project-midi2vec-midi2edgelist-MIDI-Ed_Reavey_5 0.2209768 -0.38793302 -0.12987252 -0.5758252 0.07909284 -0.46013534 -0.07220531 0.31164828 0.73061854 0.21241419 0.18699755 0.09052897 -0.10907656 -0.054245275 0.09032475 0.3965256 -0.29221645 -0.30594698 -0.13908558 0.2393576 -0.078733005 -0.2876469 -0.04133913 -0.25692528 -0.35078982 0.08268698 -0.052405566 0.23813026 0.49829233 0.16679543 -0.51478523 -0.5882712 -0.42862266 0.2207954 -0.39658353 0.06415104 -0.5352312 0.030545155 -0.23065554 -0.54548925 0.26818612 -0.3748868 0.46055585 0.18458337 -0.032336675 -0.22545965 -0.07035037 -0.010004515 -0.21465158 -0.0200566 0.11809949 0.21876793 -0.31876495 0.009250487 -0.031337015 0.39270663 0.09448499 -0.20677473 0.2109198 0.37824538 -0.073763594 -0.07782609 0.5036506 -0.14004551 -0.03414317 -0.5425882 -0.18734542 -0.33641902 0.25954917 0.21039064 0.0043423288 0.12434184 -0.11646112 -0.0723739 0.12779734 -0.19930808 -0.17549239 -0.12603058 0.061171126 -0.09291122 -0.17262328 0.02129464 -0.092426434 -0.058063902 -0.40057048 0.029798308 -0.40489626 -0.34469563 0.2309693 0.18840653 0.13555764 0.16969232 -0.11268049 -0.32648632 -0.21513699 0.19316241 -0.1195892 0.18419789 0.09839477 0.3878373
g1689491 -0.15867543 -0.66674924 -0.063851364 -0.24594481 0.59799415 -0.32029155 -0.27309334 0.1079975 0.28755817 0.11705305 0.0038215201 -0.2043462 -0.110617444 -0.37292925 -0.070848264 0.36395335 -0.2667773 0.23401026 0.32740626 -0.49782902 -0.243086 -0.17926767 -0.13364853 0.002363861 -0.034333795 -0.16560715 0.13206305 -0.14337884 0.29498082 0.068371475 0.09957163 -0.2989688 -0.2416561 -0.21655838 -0.3429791 -0.23131058 -0.09798786 -0.14062458 -0.733263 -0.5937142 0.11284044 -0.5432325 -0.058518842 0.0007442114 -0.18012719 -0.47416714 -0.45734775 0.15337798 0.11659216 0.22640266 0.21527563 -0.18724434 -0.28921244 -0.11164527 0.060722206 0.06703881 -0.10008504 0.31410328 -0.42533568 0.211173 0.22721519 -0.30896503 -0.072830305 -0.34279335 -0.21910265 0.08748069 0.4321815 -0.06431541 0.14927326 -0.6568312 0.40968284 0.3402477 -0.10993808 -0.18033722 -0.14300786 -0.39645723 -0.5362232 -0.6938885 0.1923271 0.19156149 -0.46003056 -0.15421857 -0.28556207 -0.19072068 0.037851322 0.16269915 0.00798471 -0.12474655 0.11305632 0.13725646 0.04942507 0.045720827 0.030135782 -0.16086967 -0.08581725 -0.13498147 0.47647673 0.25022003 0.01758142 0.030714246
g1667385 0.19926101 -0.018767275 -0.052441794 0.014884505 0.061898492 0.086203285 -0.35157037 0.2288139 0.34650013 0.13813125 -0.25270385 -0.017915014 -0.029224891 0.33741593 0.12150386 0.31470254 0.25261578 -0.34257334 0.17461866 -0.027017761 0.04695338 0.10543759 0.3672539 0.18160042 -0.55889696 0.09546072 -0.013535583 0.26261532 0.05474563 -0.19107416 -0.5287944 -0.9884539 -0.1281607 0.16525811 -0.37143677 0.103014305 -0.060378037 0.22376421 -0.2325319 -0.3680562 0.07219827 -0.11022789 -0.091615394 -0.25592908 0.11605661 -0.24729814 0.015683925 0.06636865 0.0049107606 -0.12722957 0.13404748 -0.37766507 -0.1645453 0.32760987 0.19787164 0.112830326 0.27356562 -0.2042904 -0.5177131 0.3262731 0.47805375 0.11568135 0.737654 0.28214398 -0.13901496 -0.55496275 0.64647573 -0.035772238 0.57551736 -0.42168638 -0.42188817 0.036015894 -0.050960686 0.22777563 -0.020714678 -0.47162384 0.27731922 -0.113464415 -0.07318856 0.37719882 0.0068660565 -0.00050931657 -0.14036418 -0.30965942 -0.10334419 -0.05657698 -0.064660184 -0.30017766 -0.08091176 0.37901506 -0.17123303 -0.17134629 -0.062529735 -0.2544502 0.030834422 -0.21342514 0.257071 -0.066714555 0.3240089 -0.20309755
g1696215 0.02365744 0.40982386 -0.077923074 -0.32672945 0.206684 -0.31065598 -0.165531 0.39067432 0.33464515 0.03213705 0.07614997 0.37066334 -0.073578276 -0.48420092 -0.35565555 0.10682825 -0.017260136 -0.16500677 0.22827113 0.5013146 -0.15257202 0.33396897 0.16437492 -0.7944359 -0.05815037 -0.091346554 0.41807386 0.14043607 0.45248258 0.58165365 -0.62874305 -0.5298342 -0.12208635 0.19345687 -0.7357348 0.024887366 -0.12736256 -0.06519205 0.113571696 -0.14866884 0.094168164 0.15159112 0.012496688 -0.07461615 -0.058668118 -0.12745267 -0.11074585 -0.4322702 0.1624735 0.02680242 0.025959983 -0.26082605 -0.13311163 0.06155095 -0.24545552 0.002459482 0.4634563 -0.18322375 -0.31953698 -0.026661312 0.41023692 -0.105729304 0.8308161 -0.120632626 -0.38888904 -0.36740735 0.31091425 0.008322418 -0.012593732 -0.4694548 -0.045657128 0.31261277 0.018103905 0.37652105 -0.33995223 -0.3706882 0.17466544 -0.15127076 0.036109477 0.00023038848 -0.16714576 -0.05805061 -0.097021006 0.025852041 -0.034657195 -0.33796993 -0.13326769 -0.1114469 -0.095966175 -0.06450745 -0.39287376 -0.036876075 0.034547858 -0.31675515 0.0018478069 -0.11595936 -0.023882639 -0.18433349 0.13928291 0.17021495
g1635673 0.044182796 0.02178556 -0.6692877 -0.3341392 0.30108953 -0.3440746 -0.46760333 0.15013611 0.4392728 -0.2037682 -0.21562399 -0.059689112 -0.3770659 -0.34590444 -0.32456344 0.4159813 0.13417839 0.25587338 -0.015409944 0.096994475 -0.1967256 0.3257493 0.30062592 -0.48921922 -0.2930404 -0.068124145 -0.14142884 0.43474612 0.08696469 0.21469104 -0.5196028 0.064300865 -0.010523207 -0.075673126 0.11374139 -0.123009995 -0.13776341 -0.24354884 -0.5458287 0.026835961 0.04982418 -0.35866943 -0.2261614 0.12074745 -0.28372598 -0.21646804 0.07431431 -0.04002804 -0.2275274 -0.05225437 0.46125677 -0.24366757 -0.3353497 0.23246704 0.03760053 0.4782632 0.24692495 0.37721702 -0.3132656 0.023047801 0.34829727 -0.26248485 0.15605678 -0.23562184 -0.15847772 -0.27871212 0.1581637 -0.06505143 -0.12848645 -0.12869535 -0.09428738 -0.21757819 -0.10276589 0.017464451 0.18082547 -0.108051874 -0.35315004 -0.5454123 0.33813253 0.23237036 0.07869876 -0.31620172 -0.120235264 0.018667886 -0.13214791 0.35684413 -0.16526532 -0.21615824 -0.22466426 0.83414227 -0.10330743 0.3037552 -0.33467934 -0.437626 0.2864879 -0.39473808 0.042553887 -0.06356838 -0.12604542 0.23016824
Users-wu_ivan-Desktop-Ivan-CS_Senior_Project-midi2vec-midi2edgelist-MIDI-Ed_Reavey_13 0.058173086 -0.33773136 0.037705723 -0.021661105 -0.3505266 0.20516096 0.07209727 0.07434284 -0.15250936 0.012905176 -0.16782366 0.24357311 0.2615989 -0.13522068 -0.06855438 0.1770623 -0.2965675 -0.32990807 0.042784136 0.124390505 0.000444021 0.3923416 0.021705566 0.011269173 -0.5506131 0.26207328 -0.16003846 -0.21404095 0.42363536 0.37202752 -0.630987 -0.5896986 -0.94370776 -0.03655033 -0.466491 -0.23474078 0.29619384 0.2571183 -0.41017124 -0.19438243 -0.013129727 -0.14186475 -0.041449558 0.05984609 0.28545856 -0.17847675 -0.095965825 -0.09190356 -0.22600414 0.15544571 0.22303264 -0.21007219 -0.079434685 0.4475594 0.15769312 0.22424245 0.3572747 -0.3044745 -0.65251166 0.016476516 0.2268768 -0.2453382 0.73535204 -0.057620864 -0.07988474 -0.3134082 0.010099855 0.24662094 0.5140786 -0.070841745 0.15374853 -0.11237718 -0.20677306 -0.055435963 -0.06501242 -0.010691433 -0.12083693 -0.44628885 0.25416175 0.34413365 -0.6231707 0.089824066 -0.4120317 -0.047123678 0.04277365 -0.065942556 -0.13811602 0.0875455 -0.35488564 -0.09165487 0.08040977 -0.004788835 -0.18501844 -0.13078551 -0.0101254955 -0.17500079 -0.16697484 0.031653866 -0.23936686 0.146768
g1660661 -0.11252716 -0.49144727 -0.4857294 -0.18438838 0.46450344 -0.15483692 -0.1304217 -0.32865387 0.3487504 -0.09445782 0.10595707 -0.33719188 0.06124087 0.018732596 -0.21093993 0.0019390681 0.27798894 0.45705697 0.11057996 -0.2852687 -0.3467409 0.20807311 -0.3732247 -0.736068 -0.14520043 0.036721665 -0.22506309 -0.121838525 0.49814823 0.68344265 -0.16621019 -0.8020375 0.0013270176 0.17668779 -0.5907756 0.045380887 0.06899389 -0.09996579 -0.3093322 -0.17982982 0.5248523 -0.11659052 -0.092116974 0.2834133 0.029306872 -0.25974444 -0.41872916 -0.021359593 -0.17427602 0.023313891 0.12556162 -0.300838 -0.20536253 0.22776708 0.17747144 0.27541092 -0.14848197 0.19381121 0.23774488 -0.016125059 0.047778677 -0.19185773 0.07347607 -0.344175 0.25296915 -0.018109044 0.05414787 0.12134191 -0.22999096 -0.10568221 0.18160233 -0.0900105 -0.37260184 -0.090908654 0.45362914 0.012860111 -0.30997282 -0.3629645 0.48147038 0.25375268 0.17955926 -0.0045082243 0.017092377 0.15256055 -0.5666766 0.2474446 -0.25812063 0.030708494 -0.08044571 0.5354259 -0.0921637 0.7556432 0.07497354 -0.20357637 0.10796645 0.016126575 -0.11534603 0.39494368 -0.011250015 0.06833798
Users-wu_ivan-Desktop-Ivan-CS_Senior_Project-midi2vec-midi2edgelist-MIDI-Liz_Carroll_3 0.08134375 -0.12997657 -0.009902167 0.036784608 0.43181756 0.1562382 -0.046368677 -0.13413528 -0.23203643 -0.07376126 -0.41613448 -0.28173274 0.12736873 -0.3960812 -0.36070794 0.2793145 0.0015898886 0.16955334 0.5793086 0.13163874 -0.41423547 0.7938562 -0.13996726 -0.43859932 -0.56801957 0.43216088 -0.34746164 -0.14649595 0.057742972 0.37982216 -0.25861686 -0.14094381 -0.34052515 0.18733485 -0.28486368 0.681705 -0.07691761 0.5044659 -0.4245197 -0.31049696 0.08205857 -0.05222508 -0.008670643 0.3761698 0.27423495 0.036632627 -0.2972624 0.2835205 -0.52211046 0.07867397 -0.30028704 0.18418147 -0.15971306 0.47138625 -0.029205684 0.22660892 -0.10529385 -0.33241057 0.16612571 0.4293333 -0.0583853 0.098224744 0.5382049 -0.43472952 -0.19529839 0.0065358104 0.21653408 -0.018929597 0.34294918 -0.31194496 0.32251588 0.0067860573 -0.020729462 0.046992265 -0.053461958 -0.17557387 -0.06846079 -0.37059656 0.11336111 0.04388122 -0.472424 -0.18336481 -0.15425095 -0.057586677 -0.30160695 0.51437145 -0.02199381 -0.3099886 -0.08803423 -0.097756 -0.11483688 -0.13642077 -0.19448109 -0.44400096 0.12484587 -0.12885772 0.1980748 0.047347214 -0.536679 -0.08213869
g1663542 0.2697003 -0.10949788 -0.1673622 -0.31548113 0.25696394 -0.17239003 -0.18553783 0.22677977 -0.15752131 -0.10615598 0.030216945 -0.22768156 -0.18119775 -0.27088496 -0.06171538 -0.14925171 0.051992934 -0.4063163 0.08668006 0.058213066 -0.22236252 0.52405286 0.12891729 -0.46466976 -0.3932141 0.17358758 0.2558896 0.15975314 -0.052702557 0.24455442 -0.05394428 -0.396933 -0.19129679 0.11219048 -0.6129024 -0.12582259 -0.121906266 0.3745359 -0.12065501 -0.11091326 0.121207125 -0.30282602 -0.022292307 -0.03202987 0.07456226 -0.103130154 -0.29407513 0.13912652 -0.031178836 -0.029551819 0.14363074 0.15899958 -0.030097198 0.32135168 0.14802006 0.5330694 0.12752315 -0.2708192 -0.41391852 0.61059475 0.018585885 0.24040334 0.17523123 -0.4925238 0.1256187 -0.33530322 -0.029947685 0.07851293 0.5202909 -0.13264485 0.02655279 0.28823176 0.43465808 0.16067988 -0.15493816 0.041337226 0.04858342 -0.16431522 -0.21610303 0.4743438 -0.2950858 0.19957267 0.11790097 -0.38882142 -0.11456821 0.3652486 -0.11033599 -0.12581578 -0.19538614 0.48338756 -0.0054667452 0.31599784 0.31020272 -0.47721982 0.26772147 -0.11002883 -0.29306865 0.03865344 -0.32460898 0.13084038
Users-wu_ivan-Desktop-Ivan-CS_Senior_Project-midi2vec-midi2edgelist-MIDI-Paddy_Fahey_3 -0.14217928 -0.6521064 -0.4534761 -0.05711679 0.6396896 -0.23653556 -0.15030411 -0.10815346 0.018810429 0.017924646 0.32345438 -0.38005716 -0.08269352 -0.30266318 -0.33244032 0.18110204 0.3610863 0.15788484 0.24887706 0.27689493 -0.0925606 0.42006463 0.071494505 -0.22869588 -0.40215674 -0.059427086 -0.24601525 0.09491144 0.3766525 0.39408025 -0.20946994 0.25782022 -0.151584 0.36269617 -0.9688025 0.037690323 0.11852862 0.20788376 -0.32726166 -0.40745386 0.36835578 -0.40944183 -0.17395571 -0.37887293 0.069114946 -0.27592134 -0.2380144 -0.023511622 -0.21764438 0.20927918 0.13383849 -0.10066894 -0.11362996 0.40380883 0.15030652 0.23487192 0.22573927 -0.3844354 0.13539462 0.12061197 0.07149643 0.14121072 0.24508305 -0.283967 -0.11664114 0.019035097 0.09967447 -0.31884056 0.22894654 -0.24913761 0.21852429 -0.20448998 -0.33471927 0.21264265 0.15189674 0.109541535 0.23048216 -0.118789464 0.16083296 -0.3593238 -0.38178885 -0.024754591 -0.28432685 -0.20966683 0.17770351 0.12638193 -0.16995974 0.04929007 0.22593379 0.14798285 -0.112825796 0.50852764 0.06129945 -0.010533806 0.3612571 -0.22152153 0.068005 0.29262662 0.1962974 0.03433771
Users-wu_ivan-Desktop-Ivan-CS_Senior_Project-midi2vec-midi2edgelist-MIDI-Joe_Liddy_1 0.06378013 -0.17687139 -0.21250208 -0.23305357 0.032552406 -0.17338225 0.09912283 0.12849864 0.3420554 0.06005243 0.16775224 -0.17907423 0.01792871 0.05377314 -0.29701626 0.2297705 -0.21732572 0.100867696 0.30667967 0.15665062 -0.22101769 0.388409 0.06567152 -0.39630327 -0.23443423 0.16461372 0.31042865 -0.34956288 0.27751645 0.2723493 -0.33778778 -0.34520504 0.1488902 0.17512856 -0.25034088 -0.35383165 0.15679161 0.022137277 -0.27622816 -0.34643114 0.14188503 -0.18670338 0.004117996 0.011841634 -0.21773177 -0.1231058 0.28601813 -0.031463515 -0.005003583 -0.2808144 0.033917867 0.0031140142 -0.41415238 -0.06638202 0.16417164 0.38851115 0.37896383 -0.35833085 -0.17069997 -0.04004256 0.093157955 0.17987853 0.43533835 -0.033781797 0.022185918 -0.43609768 0.27492115 -0.47274005 -0.054638583 -0.09868415 -0.16530955 0.3579949 -0.17803733 -0.40317157 -0.10939776 -0.8113658 0.33810824 -0.30714908 0.16487192 -0.15199117 0.16834094 -0.17025535 0.11503483 -0.02994824 -0.035710376 0.19883136 -0.3584612 0.05581111 0.07941293 0.5746765 -0.36311728 0.34617692 0.11276237 -0.357044 -0.2651367 0.22679597 -0.0918441 0.09144586 -0.15168242 0.13515136
Users-wu_ivan-Desktop-Ivan-CS_Senior_Project-midi2vec-midi2edgelist-MIDI-Liz_Carroll_5 -0.37387463 -0.40457758 -0.1094454 0.09562419 -0.24777848 -0.16803297 -0.45593944 0.35884807 0.3025365 0.26885542 0.13198769 -0.14300011 0.3638895 -0.43571135 -0.6458696 0.33663198 -0.106113285 0.26633734 0.50431585 0.083468586 -0.34672955 -0.05354129 0.3255681 -0.12873214 0.13048138 -0.049992714 -0.15250258 -0.013046165 -0.036570176 0.23290971 -0.16801754 -0.5449426 0.23038845 -0.06546502 -0.34415582 -0.03780877 -0.10196299 0.071123265 -0.18506373 -0.33742318 0.34509897 0.44454458 0.20654207 0.048278604 -0.28300473 -0.70006716 0.33440486 0.45320055 0.05091452 -0.004832985 -0.42742908 -0.2504394 -0.21875797 0.6059599 0.24299137 0.24399446 0.38393345 -0.19381064 -0.09807889 0.1678921 -0.056178547 -0.35951993 0.17797944 0.3461404 -0.5890456 -0.061842125 0.33836585 0.072520755 -0.09481503 -0.21664125 0.07113406 0.23912579 0.43287167 -0.016293688 -0.12455862 -0.013695833 0.30692655 -0.044594336 -0.16964509 -0.37863794 -0.10624706 0.15013197 -0.14137141 -0.19951573 0.20069881 0.27602664 -0.22004223 -0.15567364 -0.2305119 0.62689734 -0.44489765 0.3806644 0.06013004 -0.13374478 -0.3600845 -0.057080224 0.015889945 -0.14331494 -0.21014787 -0.0527582
Users-wu_ivan-Desktop-Ivan-CS_Senior_Project-midi2vec-midi2edgelist-MIDI-Paddy_Fahey_2 -0.36431494 -0.027111826 -0.24418752 0.50472605 0.19430543 -0.28614727 -0.18094759 0.08318661 0.1331324 0.24747281 0.19261105 -0.25638065 0.22902171 -0.15862791 -0.4647401 0.46752942 0.43960384 -0.1289557 0.19870573 -0.16754577 -0.29391474 0.5708947 -0.06802899 -0.6395165 -0.16243549 0.32159513 -0.056518167 -0.18430421 -0.038927097 -0.43740538 -0.18773592 -0.17598513 0.102016024 0.4745931 -0.26218516 -0.022646286 0.15905304 -0.007237557 -0.63441396 -0.25519127 0.18355268 -0.55667764 0.14878292 -0.50988996 0.4122508 -0.08952343 -0.09000602 0.28434208 -0.45132232 0.21852705 0.23867127 -0.07609151 0.31100556 0.020302782 0.05193205 0.3012857 0.3643315 -0.2602605 -0.029427022 -0.058698207 0.3773278 -0.019576672 0.1816589 -0.24561244 -0.41955814 -0.26815704 0.06301186 -0.27115968 0.4316867 -0.27193487 0.15314168 -0.00077870564 0.042900536 0.43985528 0.3450741 -0.054599196 0.20774566 -0.2506945 0.368589 0.16531608 -0.6760107 0.005405903 -0.38543063 -0.20673859 -0.005430199 0.24386118 -0.109293245 -0.055731505 -0.042991266 0.15301643 0.18939571 -0.03643161 -0.026229274 -0.26706332 0.14609972 0.18435413 -0.38487288 -0.07665311 -0.047534265 0.026642893
Users-wu_ivan-Desktop-Ivan-CS_Senior_Project-midi2vec-midi2edgelist-MIDI-Paddy_Fahey_14 -0.19294518 0.077715725 -0.28907576 -0.22313203 -0.10747068 -0.12853664 -0.31114358 0.39544305 -0.14068101 0.118268825 -0.066465996 0.24885312 0.25570744 0.04714137 0.064695574 -0.25935474 0.12290878 -0.24888228 0.10833242 -0.04183505 -0.117414966 0.19427857 -0.27689996 -0.30777794 -0.27779418 0.40748426 0.028511899 0.31260836 0.03281263 0.3570389 -0.31758487 -0.48914585 -0.27046007 0.1227884 -0.5986173 -0.22568987 0.012111389 0.13955869 -0.7930161 -0.45989743 -0.149041 -0.25194487 -0.021783138 -0.14016518 0.34572676 -0.25750875 0.2153258 -0.29527363 0.23335046 0.036179665 -0.3645167 -0.07491564 -0.20557375 0.77416915 -0.12741129 0.36154804 0.38720104 -0.21233824 -0.64721376 -0.29873753 0.36361122 -0.20693713 0.42462352 0.046607077 -0.054849815 -0.6479154 0.122026406 0.32159114 0.09535718 -0.11215294 0.35262048 -0.010628148 -0.033730596 -0.04776973 0.04536521 -0.15611781 0.25505805 -0.60239136 0.035477083 0.15416797 -0.37042344 -0.3836194 -0.0048074997 -0.020373305 0.2428729 -0.12088063 -0.06156512 0.28449965 0.31764686 -0.108105466 -0.16716176 0.04036566 -0.16835478 -0.23733692 -0.09833483 -0.17168136 -0.22880751 0.38630405 0.06773192 -0.26888937
Users-wu_ivan-Desktop-Ivan-CS_Senior_Project-midi2vec-midi2edgelist-MIDI-Richard_Dwyer_8 -0.2936963 -0.3119255 -0.42532247 0.14396 -0.23169 0.17253064 0.10998182 0.384228 0.56897515 -0.04620593 0.40124834 -0.3390746 -0.46361467 -0.17891315 -0.20278764 0.36752355 -0.12361413 -0.14213918 0.32467008 0.03013249 0.18417256 0.84840214 -0.06597628 -0.023791853 0.19481458 0.15182924 -0.025473919 -0.08929147 0.22695395 -0.19109474 -0.22848019 -0.58503467 0.106623806 0.14290859 -0.3369081 -0.23563303 0.15949376 0.025665915 -0.2638315 -0.09202935 -0.061646957 -0.4680184 0.43769276 0.32380486 -0.1256492 -0.46939504 0.416689 0.2831371 0.0229419 0.4077657 0.11448806 -0.47625506 -0.5503955 0.7284332 0.27631277 0.33254492 0.3902414 0.057094526 -0.19474119 0.25518814 0.24056657 -0.22477119 -0.27786463 0.2836963 -0.69286984 -0.15784629 0.03358886 0.16043507 -0.24641502 -0.036262907 -0.01311876 -0.119885646 0.14636353 -0.14680132 -0.07603896 -0.07089644 0.040071342 -0.42478165 0.2537168 0.26735613 -0.090804994 -0.20888536 0.3330217 -0.28519228 -0.2788977 0.11141343 -0.087543294 0.38114768 0.18192574 0.26603508 -0.024363672 -0.11023901 0.045789063 -0.2606025 -0.09918279 -0.045056112 -0.30868676 0.17708607 -0.27607402 0.102715634
vel:8 0.11108717 -0.025048641 -0.00849784 0.054872215 -0.11454793 -0.08484113 -0.23124373 0.44359288 -0.40156862 0.16102731 -0.07423744 0.33044928 0.33240622 -0.17562366 -0.3843338 0.040457394 -0.11987318 -0.16311696 -0.027522821 0.049155403 0.0123362625 0.13343199 -0.23734042 -0.13969073 -0.4077461 0.116631016 0.021576717 0.05974465 0.09971328 0.3561729 -0.5773919 -0.5868892 -0.91206247 0.07257307 -0.47310784 0.09632855 0.24448672 0.20790532 -0.57793355 -0.0929573 -0.034823984 -0.102659225 -0.010337677 -0.29759306 0.12236674 -0.3136603 -0.055951748 -0.14110368 0.21166144 0.23244457 0.29682183 0.11019409 -0.28523368 0.27785796 -0.065630995 0.07354842 0.19612834 -0.060536895 -0.49076965 -0.19077908 0.559418 -0.48094726 0.7044647 -0.1920648 -0.14626111 -0.4282735 0.010961513 0.027726129 0.23797157 -0.35133284 0.41846523 -0.02806584 -0.02269621 -0.026307344 0.048728988 0.2953063 0.1661084 -0.15120143 0.013923687 -0.05724986 -0.63192415 0.15084934 -0.5776297 -0.13254933 0.07287009 -0.20971395 -0.19825931 0.21233201 0.08580307 -0.040744808 -0.10096494 0.08150426 -0.14510341 -0.21909958 -0.15681212 -0.24988279 -0.094702736 -0.259417 -0.06881922 -0.06181403
g1692371 -0.16563153 0.15967761 -0.45800725 -0.09936221 0.2941069 -0.00079254963 -0.62330335 0.110847354 0.40048653 0.11188857 -0.07743594 -0.32464543 0.23226602 -0.18633339 -0.2828343 0.033149645 0.36563936 -0.20503554 -0.29429448 -0.15986761 -0.16949624 0.12934344 0.027735615 -0.604591 0.07981294 -0.22679693 -0.05982467 0.4445465 0.28700835 0.10142616 -0.39919543 -0.59009194 -0.6908713 0.30507636 -0.49043134 0.06387686 0.16040586 -0.0146742305 -0.3252079 -0.4640529 -0.02582181 0.17672363 0.043701112 0.2334577 0.07878753 0.11589278 -0.1446832 -0.012089641 0.41225588 0.16215572 -0.084122494 -0.26797384 -0.39968288 0.32478574 -0.17307925 0.18273272 0.39579925 -0.057792366 -0.64408237 0.20099987 0.16820012 -0.1304473 0.18474454 0.14317022 0.21730216 -0.3979073 -0.027513998 0.51066494 0.18453357 -0.7976941 -0.23106135 0.14412853 0.075975835 0.10862391 -0.16696103 -0.34838855 0.045294937 -0.3714816 -0.11834697 0.2482672 -0.25467116 0.043913774 -0.32493138 0.027581941 -0.2438072 -0.14990985 -0.028342856 0.16915387 -0.5551797 0.16824093 -0.23401813 0.0760634 0.054989763 0.048967186 0.038585305 -0.05004235 0.32594654 0.41829506 -0.032541987 0.32955533
Users-wu_ivan-Desktop-Ivan-CS_Senior_Project-midi2vec-midi2edgelist-MIDI-Richard_Dwyer_4 -0.26614606 -0.6412632 -0.41491312 -0.05069749 0.2428057 -0.26412767 0.020825617 0.02849776 0.28440204 0.06621499 -0.3830242 0.6480563 -0.23685159 0.20964587 -0.18903887 0.5926555 -0.29411787 -0.1539326 0.41260707 -0.04952877 -0.4011384 0.68052095 -0.3763923 -0.111489125 -0.30862123 -0.05950731 0.04710446 0.062129226 0.5092571 0.032675937 -0.17702332 -0.4400968 0.2543403 0.5501729 -0.5287069 0.16437808 -0.32558388 0.13041274 -0.33329898 -0.18217471 0.17344627 -0.07834674 -0.11109197 -0.10312045 0.10031739 0.009323755 -0.103445664 0.08848044 0.24345693 0.23209922 -0.15631948 0.040930744 -0.04587794 -0.1896987 -0.051177308 0.47970393 0.4280172 0.15304281 -0.58296186 -0.27113682 0.31609258 0.21586956 0.21636188 0.18335697 0.024109794 -0.375301 0.37278724 -0.06846628 -0.47565553 -0.41360927 -0.47853372 0.11233191 -0.2028905 -0.04137973 -0.005951131 0.035682548 -0.1411397 -0.18850835 0.14733689 -0.124083765 0.0015365466 -0.07407863 0.077393346 -0.38251847 0.18236628 0.40118653 0.22205736 -0.11784244 -0.18341735 0.24508782 -0.16387346 0.33356825 -0.3197301 -0.49906656 0.3138164 1.6629005e-05 0.30957755 -0.17010714 -0.24863803 0.11862153
Users-wu_ivan-Desktop-Ivan-CS_Senior_Project-midi2vec-midi2edgelist-MIDI-Sean_Ryan_10 0.07555968 -0.15552132 -0.15528126 -0.356976 -0.15404725 -0.4391516 -0.025706628 0.32346585 0.62565255 0.25041544 -0.026206475 -0.026514992 -0.14647634 -0.25521758 -0.41849616 0.2506897 -0.29003164 0.13804005 0.40896899 -0.0807838 0.08643876 0.6352319 -0.3790939 -0.21577144 -0.14886054 0.051677566 0.22676118 -0.04642007 0.3164146 -0.026582496 -0.028963065 -0.3946011 -0.21126893 0.1980877 -0.5495633 0.1258589 0.15006448 0.05426557 -0.40165246 -0.08043817 0.31901252 -0.42366412 -0.09794798 0.3330007 -0.32143915 -0.069801025 -0.28954852 0.28835604 0.080133215 0.10248343 0.36302754 0.060451306 -0.43797973 0.3772394 0.14447308 0.10702271 0.16777992 -0.1951957 -0.43977317 0.06838599 0.39744395 0.04900704 0.087887555 0.039698992 -0.044811245 -0.43917277 0.17072055 0.22866353 0.012451482 -0.16619259 -0.22853346 0.008794683 -0.30961248 -0.1883669 -0.38221452 -0.16976961 0.10684584 -0.17345895 0.25277725 0.36714286 -0.07739482 0.13214059 -0.06192255 -0.0969886 -0.27674228 0.23123786 -0.14120561 0.22818819 -0.11848619 -0.03519952 -0.13559975 -0.13897192 0.20237644 -0.046573427 -0.11977752 0.18049707 -0.097398914 0.16258839 0.009898553 0.14205682
Users-wu_ivan-Desktop-Ivan-CS_Senior_Project-midi2vec-midi2edgelist-MIDI-Joe_Liddy_13 -0.022008447 -0.5170734 -0.24777104 -0.36791876 0.21921532 -0.49761668 -0.091887645 0.41059408 0.34688246 0.11422999 -0.01762998 -0.08892987 -0.20936047 -0.19518378 -0.0637143 0.2705575 0.09857439 -0.09479204 0.32127908 0.013643496 -0.07213567 0.46708158 -0.12280399 -0.38149375 -0.48244062 -0.13266668 0.14153752 0.04085614 0.38489008 -0.23134875 -0.32994336 -0.5671547 -0.19899198 0.08368584 -0.15909918 -0.095247015 -0.027974704 -0.024894869 -0.15643254 -0.28140262 0.24942459 -0.54960155 -0.07920796 -0.14550033 0.17749855 -0.29636937 -0.013197566 0.40974167 -0.23458378 0.584252 -0.06343952 -0.18499717 -0.019277977 0.44198996 0.29765418 0.21309145 0.23052692 -0.12622157 0.26953253 -0.017832292 -0.017292663 0.035485614 0.047425188 0.19517137 -0.17905398 -0.2847752 0.051254254 -0.605269 0.028143514 -0.10924456 0.34666666 0.06586809 -0.10312081 0.23511331 0.25183025 -0.14516646 -0.042698696 -0.070664845 0.4968883 0.014746003 -0.07282032 -0.058370873 -0.104921356 0.07745252 -0.08135508 0.26405686 -0.35769388 -0.28379026 0.073284544 0.23580806 -0.12047679 0.06405286 -0.010570139 -0.12919846 -0.079161264 0.11424211 -0.14681181 0.25030732 0.23748404 0.09864935
g1658737 -0.030082213 0.115484014 -0.21252711 -0.37793347 0.03362791 -0.3838695 -0.39571193 0.26380104 0.11752518 -0.18253632 0.0152754625 -0.11586051 0.08884612 -0.5072 -0.16946654 0.37199122 -0.027588952 0.15799458 0.34527242 0.2810507 0.13010412 0.54655653 0.15896894 -0.4670372 -0.47956577 -0.06248518 0.081058316 0.4125569 0.13737261 -0.1074381 -0.22112362 -0.5322017 0.10430117 0.24929336 -0.0417846 -0.06036493 -0.15519392 -0.19634938 -0.19290888 -0.019549906 0.020411175 -0.21225199 -0.18649402 0.103933156 0.3009533 -0.17636116 0.08425796 0.025253154 -0.13913317 0.15308623 0.378505 0.2288815 0.04948561 -0.055175588 0.015773775 0.5911799 0.22490194 -0.25777364 -0.20355806 0.12245122 0.2914652 0.17548709 -0.027542816 -0.028466308 0.45668012 -0.24182948 0.059435423 -0.2221331 0.2772054 -0.1555466 -0.017131975 -0.18721403 0.18659616 0.3159235 -0.058655974 0.17664999 0.08621718 -0.42565373 0.5015085 0.3519129 -0.104281604 0.046293247 -0.17223692 -0.5733146 -0.16204086 0.10941804 -0.48954612 -0.35755083 -0.2741625 0.32232562 -0.22651206 0.5328742 0.21809277 -0.7539976 0.15230834 -0.24699548 -0.3637261 0.08040726 -0.013206063 0.11165869
Users-wu_ivan-Desktop-Ivan-CS_Senior_Project-midi2vec-midi2edgelist-MIDI-Sean_Ryan_2 0.011514379 -0.7942548 -0.2736111 -0.5270481 0.32148537 0.012729264 -0.19379285 -0.04891173 0.17376892 -0.103261136 -0.07105151 0.18636179 0.17764944 0.021529527 -0.14291997 0.049128983 -0.057186704 -0.122542605 -0.068919905 -0.117959015 0.031965908 0.7213859 -0.089424126 -0.34262007 -0.17318216 0.054006573 -0.055657744 0.11295191 0.54036915 0.25545385 -0.25231686 -0.5593098 -0.502771 0.63208514 -0.41690361 -0.035098176 -0.03722057 -0.21476127 -0.2783938 -0.3762195 0.5210832 -0.6931683 0.042957194 -0.15006886 0.2930585 -0.15059292 0.12594873 -0.20547931 -0.3107417 -0.23856463 0.059590545 0.28377035 -0.056703683 0.2435863 -0.07081356 0.032258112 0.3558602 -0.28608382 -0.14651163 0.22135352 -0.016418157 -0.2726565 0.34237778 -0.23606843 0.23761566 -0.26078135 -0.12714459 -0.42403507 0.40031883 -0.19472472 -0.101342455 -0.15005411 -0.25866267 -0.234177 -0.21734065 -0.046616275 -0.16508669 0.098066114 -0.08977205 0.28555185 -0.3034878 0.09528088 -0.039146375 -0.48551846 -0.16880397 -0.13617256 -0.09829936 -0.1774405 -0.11470767 -0.03668363 0.33086857 0.4370761 -0.077837124 0.0556533 0.15652871 -0.18041572 -0.09929569 0.3136981 0.005235394 0.06302898
Users-wu_ivan-Desktop-Ivan-CS_Senior_Project-midi2vec-midi2edgelist-MIDI-Paddy_Fahey_5 0.020184008 -0.17176552 -0.118929975 -0.064392 0.54780245 -0.06805309 -0.08337466 0.20678048 0.100487895 0.13979569 0.0021625324 -0.19922088 -0.09368378 -0.170464 -0.29182735 0.41786578 -0.25726843 -0.006650151 0.51216674 0.3794676 -0.28181782 0.5073257 -0.043524735 -0.14444871 -0.48229834 -0.012534257 0.090872355 -0.08108209 0.30820805 0.051697034 -0.38501704 -0.6220265 -0.26182255 -0.06100549 -0.09533614 0.08260869 -0.11789805 0.18912931 -0.50183505 -0.3582035 0.25286666 0.05800415 -0.13661294 0.375586 -0.09802395 -0.6475982 0.17535636 0.1285774 -0.011956426 0.40997773 -0.013423976 -0.28635883 -0.22600584 0.40979344 0.3414097 0.2504803 0.20419759 -0.43066117 0.029679297 -0.23329213 -0.03821618 -0.105492905 0.18736857 0.11238035 -0.32038632 0.10717127 0.019590387 -0.4386002 -0.25132075 0.038633477 0.2557327 0.15039365 -0.13326183 0.230811 0.020994449 -0.25662833 0.13237226 0.25436404 0.14840643 -0.28514424 -0.15311827 0.22650269 -0.16746907 -0.0197745 -0.08213027 0.15897907 -0.31656557 -0.21994977 -0.3327546 0.35456905 -0.48015824 0.22290125 -0.06370323 -0.15866056 0.0205126 -0.041620806 0.095588654 0.20920688 0.10472153 -0.28420067
g1662580 0.11103567 -0.21182793 -0.18392047 -0.15868329 -0.061944768 0.02439671 -0.15816917 -0.18900669 0.308519 -0.19745235 -0.1310503 -0.16879025 0.11700472 -0.36126345 -0.42249697 -0.08625087 -0.035778787 -0.18485026 -0.022171594 -0.028393557 0.04202053 0.59831387 -0.0008292036 -0.516615 -0.06314005 -0.1584478 -0.11007399 0.291946 0.40433064 0.10264929 -0.36062682 -0.8439549 -0.12155648 0.24973951 0.09354 0.1315698 -0.076817386 0.3624116 -0.48965147 0.11124961 0.019736419 -0.05315315 -0.037553493 0.06441179 -0.0533258 0.3292118 0.38497484 -0.20952615 -0.14250153 0.25380817 -0.16779967 0.022625178 -0.33192778 0.34208274 -0.2231298 0.0010793101 0.46067873 -0.2431467 -0.5135297 0.16685754 0.1757376 -0.3157513 0.4959903 0.09601782 -0.08215989 -0.5477505 0.1302291 0.2753148 -0.14012547 -0.062057015 0.16308296 0.26131874 -0.1176859 0.056789793 0.096551694 -0.36377728 0.2745859 -0.24153332 0.09816852 0.40824428 -0.5662748 0.33222878 -0.07193158 -0.25022116 -0.10009533 -0.3794542 0.24082506 0.34061325 0.21127567 0.38042456 -0.4466276 0.19308355 0.23504682 -0.037852116 0.11991026 -0.24371913 -0.004816238 0.35241073 -0.08365241 0.14675817
Users-wu_ivan-Desktop-Ivan-CS_Senior_Project-midi2vec-midi2edgelist-MIDI-Paddy_Fahey_13 0.19681764 -0.13127719 -0.07371743 0.10943375 0.22431186 0.008007541 -0.18689947 0.1992683 -0.29064977 -0.005280305 -0.0029471018 0.013603022 0.66733235 -0.02713416 -0.25916165 0.47996265 0.005926815 -0.2311019 0.7702856 0.2586121 -0.45763087 0.10675169 -0.3459186 -0.7900096 -0.16883829 0.11783983 -0.36565426 -0.051885955 -0.12931758 0.29510748 -0.48336694 -0.32376397 -0.2744892 0.2845131 -0.34990984 0.0036195365 0.17287685 0.24465723 -0.3006982 -0.059711855 0.08417581 0.042496663 -0.14158565 0.37294912 0.3946277 -0.45674905 -0.041157536 0.36294922 -0.4148163 0.015781019 0.22949639 -0.14468487 -0.3906718 0.29220966 -0.09800042 -0.106969 0.33768588 -0.21881047 -0.38630244 0.22794765 0.14313951 -0.3438312 0.5504782 -0.31574652 -0.27891797 0.35108995 -0.27684873 0.22155757 0.39712295 -0.049511813 0.21719502 0.09370949 0.17105937 0.18313941 0.41609886 0.09214876 -0.08350489 -0.19564871 -0.059096158 -0.0528953 -0.76167166 0.27947345 -0.2931424 -0.25627622 0.18613888 0.19947919 -0.07043461 -0.020048412 -0.22230724 0.085984714 0.06454521 0.06193235 0.010076397 -0.26529112 0.05629279 -0.014775069 0.12916163 -0.14733423 -0.29667938 -0.2709113
Users-wu_ivan-Desktop-Ivan-CS_Senior_Project-midi2vec-midi2edgelist-MIDI-Brendan_Tonra_2 0.17373139 -0.16952056 0.033777308 -0.24377424 0.24078852 -0.32118604 -0.5342866 0.3384173 0.3237111 -0.0041982224 -0.19890732 0.11599229 0.030569335 -0.43386728 -0.5490198 0.46869075 0.09310575 0.3396905 0.3430784 -0.39552808 -0.20137352 0.020636959 -0.35405296 -0.59167105 -0.12791818 0.08803511 0.28362966 0.14248624 0.39696845 0.20673662 -0.34610108 -0.2967026 0.07520925 0.25338554 -0.57504153 -0.105938524 -0.08063938 0.0071956436 -0.36432984 -0.058516704 0.27096623 -0.34687352 0.06347107 0.19351861 -0.30667394 -0.30290657 0.21037953 0.1690088 -0.032897197 -0.19635321 0.1412357 -0.12042199 -0.44306856 0.5321843 -0.14753763 0.017673664 0.20079121 -0.0785539 -0.30690375 0.046193372 -0.039095707 0.04860136 0.27246934 -0.49257243 -0.031700622 -0.39539558 0.13085951 -0.055679984 0.0072980216 0.1848535 -0.0031719536 0.034252737 -0.31095505 0.033485215 -0.2611326 -0.36472735 0.007495885 -0.3059559 0.13396397 0.14684741 0.003681904 0.15357357 0.16172798 -0.04120066 0.041551683 0.1987111 -0.07920857 0.17832471 0.4058697 0.05671219 0.27033594 0.09155532 -0.19051291 0.10974907 0.15866587 -0.016728206 -0.04087911 0.28396025 0.17384037 0.010748965
g1719282 0.040562462 -0.45426992 0.46331772 -0.11774023 -0.101374544 0.06125754 -0.40009665 -0.28736874 0.34328762 0.28315115 0.49327683 0.1336604 0.06603163 -0.45832464 -0.4419784 0.17791604 0.23572578 0.23060393 0.21594149 -0.31941617 -0.19059078 0.3786818 -0.07204036 -0.5627619 -0.49504992 0.13231763 -0.029937027 -0.25839227 0.24299507 0.46365482 0.36699635 0.17103276 -0.24156387 0.24601437 -0.22847445 -0.13792424 0.06761095 -0.09401154 -0.42755908 -0.3700814 0.36576876 0.06821399 -0.019342672 0.019032877 -0.5292641 -0.021744108 -0.319373 -0.10097586 -0.09390895 -0.023978222 0.10809533 -0.72269535 -0.2413203 0.35891145 0.64590764 0.16250253 0.01874602 0.10052796 -0.0536412 0.30997023 0.115392245 -0.033615883 0.86286426 0.11078773 -0.26116666 -0.18874972 0.5443134 -0.5021458 0.32050443 -0.4304253 0.24991669 -0.006390275 0.29455972 0.27609283 0.04310428 0.034926724 -0.037796844 -0.61897427 0.19524683 0.08268397 0.15137203 -0.10838019 0.08568387 -0.21884617 -0.3579262 -0.13009484 -0.21086352 -0.22531894 0.28894123 0.17573921 -0.30052137 0.26181084 0.204978 0.009439865 0.075009555 0.11879687 -0.1569489 -0.56235176 -0.08390204 0.013160902
Users-wu_ivan-Desktop-Ivan-CS_Senior_Project-midi2vec-midi2edgelist-MIDI-Liz_Carroll_9 0.35231248 -0.27948996 -0.15452212 -0.195419 0.040111553 -0.18585226 -0.17733583 0.30172986 0.694121 -0.19231313 0.2708035 0.02896929 -0.16610129 0.06463526 -0.012067304 0.044056773 -0.0041229054 -0.07968777 0.04018994 0.1790454 -0.19303866 0.53776795 0.059451554 -0.2937618 -0.44916183 -0.10716056 0.06989277 -0.12536097 0.09956091 0.22752069 -0.31725478 -0.15109241 -0.10992259 0.2653414 -0.39117584 0.029548747 -0.34559178 0.11307372 -0.6905161 -0.55131805 0.29711834 -0.4139199 0.14242932 -0.07639284 0.27355418 -0.091828816 -0.002064662 0.37344345 0.08458657 0.23695365 -0.118441015 -0.16685772 -0.22871721 0.024554918 0.21828134 0.14952552 0.51401037 -0.49435303 -0.44009525 -0.1974089 0.0495653 0.17373179 0.27860266 -0.08504668 0.15578632 -0.40403208 0.13487928 -0.35815927 -0.18461156 -0.09351459 -0.043040447 0.07366405 0.025188044 -0.15078096 0.056704465 -0.42526212 -0.2915974 -0.16297325 -0.04227783 0.098789595 0.055914797 -0.06575642 -0.11658723 -0.21685223 0.004955588 -0.02670303 0.043470815 0.18534353 0.14904922 0.26760003 -0.1452432 0.09240832 0.12828214 -0.4075757 0.1085061 -0.15761682 0.013613191 -0.016661951 0.07184551 -0.26704627
http://purl.org/midi-ld/notes/55 0.23101522 -0.19949436 -0.23530556 -0.41855812 0.50199056 -0.10857117 0.20994133 0.12972541 0.67074203 0.23554656 0.16426441 0.16959706 0.16942087 0.6917644 -0.24600515 0.08050957 -0.14222446 0.05680541 0.36213735 -0.038518954 -0.2506187 0.27561042 -0.13623774 -0.18264867 -0.06495087 -0.10914317 -0.5032783 -0.18264002 0.19874935 -0.12876579 -0.17796302 -0.064469524 -0.08735644 -0.40948546 0.15548056 0.061440855 -0.5803952 0.058608625 0.20265831 -0.0070184288 0.011351975 -0.049473915 0.14133571 -0.451863 -0.20254658 -0.007994732 -0.076765575 0.09186322 -0.036223304 0.16979611 0.11571085 -0.08577441 -0.6788548 0.3162092 -0.001212731 0.057059657 0.1989581 -0.13837875 -0.6144512 0.13522212 -0.13789637 0.21193832 0.8374071 -0.16906504 0.28379795 -0.030950295 -0.005259044 -0.3706277 -0.021958655 -0.3318647 -0.21323116 0.4455571 -0.06090658 0.3991713 0.54583466 0.16817984 -0.37549406 -0.3691016 0.0702755 0.69778717 -0.496169 -0.5152927 0.2675425 -0.6317629 -0.20981887 0.7828595 -0.41093725 0.029195676 0.31858516 0.4002301 -0.3814403 0.66538316 -0.18234722 -0.5146396 0.13191096 0.32228717 0.2556673 0.57478154 -0.5668496 -0.09357026
Users-wu_ivan-Desktop-Ivan-CS_Senior_Project-midi2vec-midi2edgelist-MIDI-Ed_Reavey_6 0.10328813 0.11286996 0.028195893 0.014681012 -0.056932032 -0.17633095 -0.2557636 0.12743223 0.10819012 -0.17225753 0.00941123 0.06519216 0.38545126 -0.14121568 -0.10533602 0.15115298 -0.10935049 0.002071122 -0.07279346 0.18871339 0.11101862 0.4395723 -0.060254473 -0.15959907 -0.39546815 0.13923259 0.15017644 -0.2530532 0.15761448 0.28555915 -0.43736598 -1.0259315 -0.64157516 0.04608118 -0.15834422 -0.036168426 0.07028001 0.019159546 -0.43073454 -0.41109562 0.039071575 -0.0041920356 0.12597936 0.3603758 0.2101728 -0.18477568 0.27515277 -0.38330674 -0.07701297 -0.15525122 0.38760543 0.020823566 -0.3120771 0.34739646 -0.06076879 0.0058304644 0.26983765 -0.32068628 -0.734022 -0.17063312 0.56471014 -0.27771798 0.8672295 -0.16475469 -0.10812431 -0.13046244 0.039504625 0.076138504 0.35459045 0.0846262 0.2511854 0.15671216 0.14266229 -0.23187837 -0.142671 0.022500815 0.10999867 -0.5025593 0.17082077 -0.078250945 -0.10785007 0.22464547 -0.3911056 0.10973862 0.04523237 -0.0640287 -0.18563731 0.082961455 -0.119487174 0.05163161 -0.12398709 -0.08731348 -0.08554822 -0.31157145 -0.053099643 -0.2761015 -0.16975515 -0.13671419 -0.009972192 0.00058838376
Users-wu_ivan-Desktop-Ivan-CS_Senior_Project-midi2vec-midi2edgelist-MIDI-Ed_Reavey_3 -0.12422931 -0.11746404 -0.30301657 -0.018869687 0.017321495 -0.19192266 0.14373207 -0.20481873 0.45347974 -0.09486893 -0.23979169 -0.14042763 0.020045567 -0.46922147 -0.3038975 0.16328077 0.055593204 -0.14041695 0.117214724 -0.4400618 0.0134245455 0.5781068 -0.07992426 -0.56293637 -0.3875063 0.24885477 0.2642651 -0.45692304 0.437897 0.0003766613 -0.26590222 -0.40628114 0.12975363 0.14560378 -0.25122982 -0.03324815 0.075115256 -0.23052455 -0.11894038 -0.32623097 0.44404614 -0.34305143 -0.13557056 -0.3073918 0.18653344 -0.33401808 -0.040750653 -0.2854771 -0.05402686 -0.029077685 0.08933265 -0.22375269 0.04060728 0.12491046 -0.13594458 0.012980723 0.43734366 -0.3240247 -0.44339913 -0.17808832 0.21270749 0.13697016 0.43919915 -0.2544697 -0.06780733 -0.47568786 0.12254304 -0.28213224 0.3662609 0.009310875 -0.54713696 -0.0013279708 -0.08184994 -0.4590167 -0.0013144551 -0.03041074 -0.0068192934 -0.14590485 -0.03616998 -0.2298795 -0.08995184 -0.1812142 -0.26423997 -0.57540303 0.0805105 0.31096628 -0.10866018 -0.22715731 -0.20505165 0.33664483 -0.008004009 0.42445168 0.31274274 -0.21379362 -0.06876024 0.005361453 -0.28299412 -0.05077162 0.15509515 0.4602826
Users-wu_ivan-Desktop-Ivan-CS_Senior_Project-midi2vec-midi2edgelist-MIDI-Liz_Carroll_4 0.045040987 0.019951994 -0.54385895 -0.2083735 0.09835286 -0.6615122 -0.10175654 -0.13272363 0.7308333 0.59292495 0.038903113 -0.09769609 -0.04761055 0.3043556 -0.4643833 0.3580218 0.30748233 0.33407465 0.61499393 0.10652031 -0.13503388 0.66311634 -0.055039227 -0.043380775 0.08436188 0.14522083 -0.20997116 -0.21443695 0.15428442 -0.07448067 -0.08795358 -0.0356763 0.19620861 -0.04515317 0.023150966 -0.08905113 -0.23052073 -0.04095925 -0.48394796 -0.22379655 0.4655671 -0.5266794 0.21796972 -0.2217973 0.05958083 -0.4533937 -0.5220851 0.29748783 -0.21725379 0.30588508 0.17022446 0.31246045 -0.33738357 0.25674427 0.093293846 0.645063 0.037077896 -0.20331423 -0.34495974 0.15566204 0.31567535 0.25350368 0.09137179 -0.09354861 -0.16200747 -0.1253525 0.14133205 -0.07069402 -0.14108126 -0.22196862 -0.24949145 0.3200696 0.029232735 -0.2078641 0.17548381 -0.055885293 0.0033840311 -0.19188431 -0.19266628 -0.26351506 -0.14152281 0.24515153 -0.27394864 -0.4827949 -0.0684336 -0.12730266 0.006383189 0.010937717 -0.24557655 0.52262646 0.11034384 0.4010401 0.3549768 -0.19301392 -0.020713324 -0.24889234 0.12486523 -0.14675155 -0.05993849 0.15547192
g1662583 -0.29494667 -0.34704518 0.10506539 -0.01865554 0.11492402 0.012652414 -0.42838722 -0.2868522 0.48741415 0.199235 0.013062937 -0.17851192 -0.12157701 0.27242276 -0.48885405 0.3610194 -0.22561978 0.20469554 0.28056356 -0.29545593 -0.11885104 0.44619256 -0.02014481 -0.04406258 -0.21710603 -0.42976344 -0.4180167 0.1064494 0.28502864 -0.060250573 0.023336722 -0.8893563 -0.37854883 0.14060687 0.011452588 -0.23897283 -0.34959212 -0.2915137 -0.5946794 0.17995949 0.17851736 -0.5421304 -0.1652714 -0.2715281 -0.108885735 -0.12960258 0.04367656 0.100100026 -0.29186043 0.16714983 0.28383055 -0.019691607 -0.44717982 0.38841647 -0.3913446 -0.076738514 0.15414616 -0.3801911 -0.23526755 0.047952324 0.5720389 -0.1606521 0.24111582 -0.26104546 -0.36745584 -0.28151938 0.80499077 -0.311735 -0.1659468 0.004425536 0.036111448 0.14366627 0.42106146 -0.12509161 0.23030081 0.0044505987 -0.31861547 0.0140565615 -0.17457713 0.2907544 -0.12981139 0.1642312 -0.332135 0.10924859 0.10107015 -0.18955877 0.013794216 -0.1321052 0.520819 0.6908931 -0.08522823 0.16973563 0.19880606 -0.04034455 0.23029429 -0.2816019 0.063813634 -0.00046207733 -0.35587087 -0.08728893
Users-wu_ivan-Desktop-Ivan-CS_Senior_Project-midi2vec-midi2edgelist-MIDI-Ed_Reavey_1 0.26744834 -0.12234161 -0.110572346 -0.21110737 -0.0780058 -0.110118724 -0.2423614 0.31797016 0.12342665 -0.10422036 -0.1023281 0.023544319 0.003389311 -0.20036654 -0.22788359 0.091070205 -0.14610708 -0.032251537 -0.07417925 -0.3889804 0.13251348 0.48676273 -0.18188407 -0.6302238 -0.30868435 0.24507605 0.054935396 -0.23460014 0.12777743 0.29251164 -0.04619346 -0.21708484 -0.49311426 0.18152799 -0.5004551 0.0072684363 -0.061333075 0.10330212 -0.5835457 -0.32564408 0.098071955 -0.13226075 -0.18927512 -0.25347292 -0.059736766 -0.25731647 -0.24627103 0.09510406 -0.16427974 -0.06434687 0.09468893 0.06538431 -0.19486439 -0.110055454 -0.08833133 0.16436297 0.34185427 -0.17853998 -0.2986523 -0.1979349 0.5009542 -0.057384796 0.2927868 -0.35657895 -0.14762856 -0.26564854 0.3375977 -0.016010158 0.19145398 -0.3432312 -0.11021889 -0.07505935 -0.13294832 -0.4148404 0.08260435 -0.2914916 -0.08939772 -0.37671447 0.010546425 0.15285984 -0.2921864 -0.14471047 -0.27539027 -0.34961447 0.24828093 -0.0007459953 -0.10423559 -0.024186056 -0.008986497 0.24557243 -0.27542466 0.21576874 0.25312975 -0.15033156 -0.2153386 -0.14886971 -0.11251036 -0.23797217 0.1513871 0.017493138
Users-wu_ivan-Desktop-Ivan-CS_Senior_Project-midi2vec-midi2edgelist-MIDI-Richard_Dwyer_6 0.058895994 -0.4300509 -0.41474015 0.06280342 0.48331097 0.23571837 -0.304814 0.39754754 0.42565376 0.32964554 0.094683915 -0.29544926 0.29210213 -0.037998352 -0.3864806 0.30137554 -0.24118763 0.082816355 0.31194484 -0.02420499 -0.18266505 0.5989829 -0.1662327 -0.113714606 -0.26849654 0.04935648 0.08824614 0.13126394 0.71037346 0.20574509 -0.116111964 -0.52808326 0.111867145 0.13129157 -0.38751888 -0.14392808 0.17763706 0.18401094 0.015613953 0.13217072 0.36101198 -0.40085572 0.3150647 0.13778095 0.20464134 -0.060668137 0.2780271 0.26952365 0.22801009 -0.49507263 -0.058225546 0.050501637 0.43681166 -0.35493731 0.42170793 0.22559626 0.42434773 0.25019255 0.12943278 0.35660768 0.21913297 -0.12247777 0.3124273 -0.0060156267 -0.3385097 -0.05280842 0.31264755 -0.2725727 0.061552346 -0.3309571 0.24924815 -0.10605915 -0.1283322 0.18050118 0.123639345 -0.018624647 -0.0026526346 -0.76826763 0.42582563 -0.043946162 -0.31090102 -0.13840306 0.107985646 -0.26050442 0.20121586 0.22696404 0.15352616 -0.32805812 0.27427757 0.40325037 -0.0059579653 0.47209573 0.06659952 0.09528061 -0.030706618 0.23623374 0.007551776 -0.08977598 0.22914122 -0.1569101
http://purl.org/midi-ld/notes/57 -0.073687 -0.11781285 -0.6253425 -0.11554693 0.49194768 0.14278461 -0.5718779 0.069669776 0.6605223 0.46929538 -0.23515439 0.0010790467 -0.38155386 0.23965716 0.13099174 0.5273409 0.5347384 0.1713248 0.24762551 0.41637352 0.22564372 0.59844375 -0.3688193 -0.45485094 0.27922982 0.108283326 -0.02481884 -0.29772967 0.45020682 -0.0968063 -0.03775349 -0.3366268 -0.0985774 0.04726069 -0.50264573 -0.7659573 -0.18256338 0.1257792 -0.042840958 0.2987789 -0.089034446 -0.13170366 0.12017967 0.54190624 0.028858537 -0.090495735 -0.48266503 0.047253042 -0.05137719 0.4253568 0.18012689 -0.119384326 -0.16966502 0.7378748 -0.6898866 -0.24869183 -0.18506886 0.07268445 -0.5516473 -0.29445505 0.030073972 -0.052451942 0.61287636 0.123119935 -0.5486584 -0.068796225 0.18198988 -0.44020176 0.14086173 -0.64095527 -0.42308727 -0.040874377 0.1781047 0.21994227 -0.05711051 0.39557278 -0.08763096 -0.001980844 0.16886371 -0.26634496 0.28380024 0.25376675 -0.022199854 -0.559955 0.16151 0.3645846 0.09771809 -0.57688487 -0.56751233 0.56558627 -0.04131968 0.5602342 -0.19110303 -0.32162753 -0.032649323 -0.068129726 -0.008146284 0.119310215 -0.25872526 -0.0062440964
Users-wu_ivan-Desktop-Ivan-CS_Senior_Project-midi2vec-midi2edgelist-MIDI-Paddy_O'Brien_5 0.2100717 -0.10746776 -0.16272959 -0.1783329 0.39381677 0.1719936 0.012021957 0.16210574 0.26768813 0.10580467 0.11198923 -0.23393705 -0.03900585 -0.10055157 -0.3648488 0.09172296 0.08983527 -0.013142025 -0.094433285 -0.23033331 0.024325704 0.54365736 0.19805819 -0.6083023 -0.7381632 0.089735195 -0.1049521 -0.21770035 0.22695906 0.4250889 -0.32362533 -0.43984985 -0.20501386 0.15604725 -0.5458761 -0.030468432 0.13302216 0.062170554 -0.6007463 -0.40988252 -0.08168043 0.023361351 -0.31928638 -0.3842883 0.035416126 -0.21486574 -0.34540462 0.35881945 -0.15035284 -0.056537345 -0.13618642 -0.28845757 0.064662606 -0.000848363 0.16797034 0.20278852 0.2367171 -0.122094974 -0.20025818 -0.07533131 0.1262086 -0.036593396 0.25406197 -0.43849674 0.09589779 -0.11276218 0.21142031 -0.51767004 0.028311068 -0.31199256 0.055122837 -0.3445867 0.15708953 -0.33474892 0.15026441 -0.21511553 -0.020217944 -0.099800624 -0.23629095 -0.3219992 -0.5043971 -0.22616687 -0.2581716 -0.60834944 0.11713037 -0.0525267 0.052589323 -0.10097744 0.004922649 0.20164959 0.08513154 0.21335274 0.27111304 -0.31752333 0.0779387 -0.19909397 0.12411129 0.049003687 -0.024027364 -0.16499065
Users-wu_ivan-Desktop-Ivan-CS_Senior_Project-midi2vec-midi2edgelist-MIDI-Paddy_Fahey_7 0.33293146 -0.46762362 -0.31345385 -0.43340015 0.107929125 -0.23436953 -0.3956415 0.39223823 0.2561718 -0.045621753 0.062292296 -0.14284472 0.1499156 -0.31185502 0.102558635 -0.11459022 0.058384683 0.20727514 0.24133107 -0.17296487 -0.00012675673 0.40595832 -0.18009344 -0.39777938 -0.25019857 -0.09284652 0.24730462 -0.09162263 0.38162583 0.04497843 -0.067580834 -0.4001917 -0.055434696 0.20269041 -0.3310164 0.3069859 -0.07865339 0.018401613 -0.41890264 -0.14910671 0.35921222 -0.43164858 -0.13958812 -0.05859111 0.32144368 -0.28845796 0.042301897 -0.12717818 -0.010896688 0.19888996 -0.0422675 -0.29292968 -0.47425672 0.66406274 0.19458987 -0.15212986 0.3541217 -0.18466762 -0.32895917 -0.15421882 0.14570324 0.0740708 0.26893374 -0.122570835 0.4331835 -0.45724013 0.056335505 -0.3228678 0.10469798 -0.29337698 0.5015461 0.15041354 0.1465911 -0.122757696 -0.19343111 -0.16076322 -0.14558232 -0.27979118 0.16833697 -0.00044939504 0.1099264 0.07662512 0.1323583 -0.09036361 0.012743274 0.059187833 0.09228818 0.05365459 -0.097040504 -0.020746585 -0.037563477 0.04843958 0.037335105 0.008657436 0.47448474 -0.22247693 -0.20584792 0.06115999 0.08065552 0.022352649
Users-wu_ivan-Desktop-Ivan-CS_Senior_Project-midi2vec-midi2edgelist-MIDI-Richard_Dwyer_9 0.15517549 -0.3948532 -0.033469513 0.05033239 -0.16444801 -0.21875766 -0.19861776 0.12903596 0.36213854 -0.12931147 0.037294783 -0.113755986 -0.013538771 -0.20075165 -0.31511644 0.06024415 0.12186817 0.47151127 0.007237701 -0.19779055 -0.01596237 0.602595 -0.101523615 -0.48019665 -0.31157723 0.065508455 -0.035786174 0.030675275 0.2223485 -0.042444028 0.06966809 -0.73896486 -0.1968728 0.38156 -0.4910974 -0.1388055 0.021344896 -0.06944053 -0.51645464 -0.57086235 -0.02796216 -0.62803 0.12331582 0.08223689 -0.15076561 -0.086794026 0.20915933 0.086758785 0.016642353 -0.15095048 -0.048779972 0.4204726 -0.26337722 0.32031283 -0.010771942 0.096571356 0.13051638 -0.17172877 -0.20627274 -0.15234654 0.31968993 -0.04167562 0.37538853 0.07080826 0.28350785 -0.39320374 0.06492297 0.08832547 -0.030054986 -0.22968933 0.04485566 0.25336906 -0.068397604 -0.1417964 -0.23248608 -0.33930582 0.0556403 -0.20145917 0.26651365 0.20297937 0.14533013 0.027525036 -0.15247618 -0.14452463 0.168256 -0.15175584 -0.104911864 0.10324012 -0.14197838 0.19704215 -0.21059147 0.081540555 -0.09197391 -0.13293701 -0.12972018 -0.021603875 -0.18184856 0.12121426 0.0071815597 0.10414956
Users-wu_ivan-Desktop-Ivan-CS_Senior_Project-midi2vec-midi2edgelist-MIDI-Paddy_Fahey_8 0.09722399 -0.06567472 -0.09170326 -0.1894042 0.0039036733 0.13443933 0.29481333 -0.05086774 -0.005580835 0.35242462 0.18412875 -0.26076207 0.38835236 0.14244193 -0.58094 0.55955195 -0.12011744 -0.15656677 0.5548055 0.112353146 -0.07449508 0.50662124 -0.30339563 -0.5339878 -0.25349194 0.14672214 -0.17708284 -0.2343651 0.22354224 0.22445886 -0.3771974 -0.39296925 -0.107081145 -0.03663418 0.034863297 -0.069622986 0.38128307 0.17440763 -0.5320326 -0.22541071 0.19237483 -0.0998624 -0.11593271 0.2908993 0.34658763 -0.54768693 0.11828244 0.3749859 -0.19097176 -0.056434322 0.064796925 -0.073641255 0.21951039 0.1988057 0.20724985 0.096316375 0.23440623 -0.15560861 -0.49733636 0.20234181 0.19003198 -0.1561477 0.46091017 -0.35051134 0.032493472 0.08259365 -0.0073126988 -0.21974394 0.035134077 -0.09505204 0.6436851 0.18851766 0.09607408 -0.028197302 0.19173935 -0.5153074 -0.08160831 -0.27388895 0.16823977 0.13406682 -0.5467913 0.39187995 -0.30240136 -0.34568435 -0.36927816 -0.122933015 0.17295095 -0.0006214349 -0.17469878 0.1562102 0.49758783 -0.01861174 0.035637274 -0.12520593 -0.1022228 0.021917224 0.089653455 -0.18478848 -0.14604871 -0.18341322
Users-wu_ivan-Desktop-Ivan-CS_Senior_Project-midi2vec-midi2edgelist-MIDI-Sean_Ryan_7 0.16938867 -0.2283713 -0.19304061 0.017116688 0.0016796226 -0.18246096 -0.2887552 -0.014468216 0.6347651 0.19602208 0.4419182 -0.28662077 0.4599278 -0.22604284 -0.67026055 0.580238 0.2217241 0.41375664 0.71314543 -0.12569758 -0.09334253 -0.12409353 0.06035843 -0.50089586 0.10547881 0.15127257 -0.045054317 -0.047101382 -0.076373875 -0.039497547 -0.48800933 -0.03802929 0.27747947 0.06083272 -0.54841286 -0.5042592 0.4406497 -0.052934863 -0.6345528 -0.094885185 0.39787534 -0.32525137 -0.26068956 0.3006618 0.1362025 -0.3832276 -0.11361304 0.17581132 -0.13664067 0.1181023 -0.18100761 0.28875417 -0.1528593 0.5141647 0.16835083 -0.0643866 0.28570777 -0.000847589 -0.6020447 0.10377354 -0.012570581 -0.31282827 0.2774991 -0.10845145 -0.32184634 -0.5013791 0.049260776 0.07404592 0.15105978 -0.055417955 -0.080714144 0.24329485 0.36485815 0.23363797 0.06773106 -0.3370905 0.29036558 -0.19808352 0.077609 -0.07057508 -0.2880911 0.27086708 -0.106409565 0.04791431 0.022155516 -0.0809814 0.12919648 0.31715232 -0.011779075 0.18100075 0.16608986 -0.09378511 0.27853668 -0.18780981 -0.30995163 -0.114453025 0.068426326 -0.3467732 -0.14825933 0.13582335
g1660658 -0.12155971 -0.47614226 -0.34686106 -0.044672098 0.1383038 0.13593465 0.2368778 -0.057989176 0.1251246 0.070229456 -0.3021522 -0.30913198 0.064209096 0.024311682 -0.44799674 0.065409414 0.038393557 -0.168196 0.13998406 -0.11586368 0.15254457 0.09083058 -0.03093321 -0.49013177 -0.20948929 -0.19889946 -0.202158 0.41791317 0.14330466 0.06489047 -0.41099533 -0.7303442 -0.24512947 0.19004239 0.069675796 0.22300369 0.015667982 0.33647615 -0.64301157 0.033823818 -0.06589524 -0.002213039 0.08517806 -0.025237378 -0.04594617 -0.1919166 0.052479733 -0.008631056 -0.012553281 0.49872586 -0.10287004 -0.027923727 -0.55770546 0.7127224 0.31589505 -0.07978528 0.29517296 -0.08931494 -0.53909713 0.06468979 0.37952054 -0.2939742 0.71311975 -0.08989793 -0.3480009 -0.23733632 0.03341535 0.46790725 -0.18879291 -0.2938476 0.119230434 -0.13148546 -0.3379722 0.08061299 0.15763474 -0.12773535 0.26380718 0.0038445399 0.03161931 0.3283385 0.06578297 0.40941435 -0.1553212 0.14589664 0.34174374 -0.27727535 0.21284848 0.26008117 0.0996876 0.676047 -0.34618977 0.20922834 0.20982574 -0.25796565 0.09806496 -0.111510664 -0.119285025 0.7267773 0.0005601495 -0.051864248
g1664502 0.027625905 -0.14211163 -0.17124565 -0.30771962 -0.080659255 -0.2517563 -0.14983298 -0.017737227 0.17483586 -0.24979347 -0.016843166 -0.1629171 0.012395251 -0.4161256 -0.038465705 0.42319396 -0.13233268 -0.057051044 0.4398768 -0.041354924 0.020954784 0.12271574 0.028502723 -0.23265706 -0.083761856 -0.21814741 -0.049911633 0.04735595 0.34435064 -0.18136083 -0.35948443 -0.6562868 0.13683112 0.32342467 -0.043480027 0.2520225 -0.30807695 0.18790282 -0.2983679 0.102125406 -0.10263733 -0.22082892 -0.2938667 -0.19613898 0.31747344 0.23292677 0.429001 -0.29711086 0.07316197 0.1412016 -0.14455716 0.20585844 -0.44049498 0.346027 0.06266971 0.045139022 0.6114822 -0.35633647 -0.4754758 0.06314898 0.32421714 -0.3375882 0.7195177 0.11136314 -0.25788268 -0.7188699 0.5032855 -0.1614837 0.11040147 -0.45895916 0.013550867 0.103869736 -0.16592945 -0.0087495865 -0.08723751 -0.26269147 0.3509399 -0.40099806 0.01829952 0.22854087 -0.24352157 0.41823253 -0.051190525 -0.68215215 0.04852336 -0.25682476 -0.08539084 0.1367058 0.24744341 0.21072207 -0.21158023 0.09128431 0.3297163 -0.0018629829 -0.14336614 -0.46406272 -0.0021345653 0.44476825 -0.11366037 -0.13832852
Users-wu_ivan-Desktop-Ivan-CS_Senior_Project-midi2vec-midi2edgelist-MIDI-Liz_Carroll_2 0.054978225 -0.45127591 -0.27491382 -0.14369725 0.34290063 -0.31165558 -0.40526742 0.42180014 0.3537085 0.1207648 0.19130571 -0.018639367 0.17314011 -0.55408335 -0.34640762 0.5383046 -0.23512813 0.06597589 0.539706 -0.015441193 0.0794866 0.071581185 -0.25508773 -0.14359194 -0.33885247 0.22848678 -0.0013716248 -0.09908521 0.06964719 0.075311586 -0.36938876 -0.603267 -0.25501427 0.17658035 -0.5288682 5.6249177e-05 0.039534792 -0.0977857 0.025669677 -0.14457534 -0.13317074 0.057461 0.14420217 0.24954769 0.015502779 -0.43802044 -0.012039629 0.03636267 0.1277879 0.12477687 0.028670767 -0.22542746 -0.37418032 0.4289532 0.14683601 0.06772911 -0.05166358 -0.03697218 -0.2072621 0.31779245 0.3327572 -0.29893023 0.21905394 -0.25110567 -0.51935226 0.065680124 0.06084649 -0.08255243 -0.044044435 -0.24412799 0.41164857 0.09684888 0.15570508 -0.12003934 -0.06686916 0.25015274 0.34451455 -0.3887218 0.27871594 -0.325999 0.10577249 0.33341715 -0.036940232 0.38048467 0.2450531 -0.008886774 -0.17417148 0.30387035 0.265758 0.35192385 0.057537217 0.18123072 0.05192382 0.24630556 0.005301844 -0.23245655 -0.07885732 -0.0654888 0.15652046 -0.036528148
Users-wu_ivan-Desktop-Ivan-CS_Senior_Project-midi2vec-midi2edgelist-MIDI-Brendan_Tonra_7 -0.044852395 -0.056226425 -0.37926432 -0.038286947 -0.016899405 -0.0009435102 -0.21404913 0.10315572 0.1852098 0.27698025 0.38774708 -0.27105632 0.36752698 0.19624135 -0.40644133 -0.036744613 -0.08468757 0.083680816 0.73562235 0.28555697 -0.21833694 0.07307425 -0.36572507 -0.08842614 0.0571479 -0.029235316 -0.18496734 -0.13170333 -0.13850673 0.050976317 -0.27350804 -0.6550299 -0.2472494 -0.3551025 -0.5360438 0.0074986652 0.10949036 0.47533652 -0.24091648 -0.27599737 0.23516633 -0.3287452 0.32992992 0.102549545 0.10702812 -0.2745804 0.08168066 0.026258418 -0.41848552 0.7868404 0.15281737 -0.05071805 -0.6840693 0.53730154 -0.21119416 0.30418596 0.34200203 -0.16213912 -0.35394326 0.17804167 0.19213764 -0.25049162 0.45069006 -0.0248911 -0.31529614 0.11745186 0.044177864 0.4915186 -0.007834875 -0.33610383 0.042685732 -0.119186714 0.07157637 0.117830954 0.21269597 0.36870542 0.24003685 -0.28734145 -0.1623305 -0.18556722 -0.37458408 0.20973672 -0.47487023 0.028739646 0.11249533 0.09375477 -0.26394632 0.2487164 -0.2407347 0.2409598 -0.37923437 0.059271738 -0.08603646 -0.28254196 -0.009531617 0.12895493 -0.12604764 -0.47617874 -0.519508 -0.07577971
Users-wu_ivan-Desktop-Ivan-CS_Senior_Project-midi2vec-midi2edgelist-MIDI-Paddy_Fahey_0 -0.031801414 -0.4001046 -0.32340243 -0.40467533 0.54760814 -0.21767206 -0.3052539 0.11058061 0.41274586 0.38582322 -0.021396613 -0.3688443 0.2132028 -0.044397403 -0.38947612 0.1895753 0.1906577 -0.012950044 0.0043172645 0.2202003 -0.42838335 0.5537904 0.065977715 -0.37027848 -0.41078836 0.034799296 -0.10808061 0.18715607 0.3477765 0.271677 0.10608713 0.15173465 -0.1902312 0.3420073 -0.68382 -0.05056901 0.068697006 0.26864645 -0.7177428 -0.21222973 0.50641805 -0.21910916 0.14915201 -0.14172214 -0.11573916 -0.29210725 -0.30505848 -0.10207463 -0.16932333 -0.15107396 0.14501898 0.19996408 -0.04952641 0.36590868 0.22012988 0.363456 -0.04363491 -0.25943536 -0.041422967 0.048522234 0.12878802 -0.01851716 -0.022525163 -0.116547935 0.11799851 -0.020528244 0.019656664 -0.1364576 0.29788178 -0.14211518 0.26516065 -0.33926356 -0.4141746 0.069811195 -0.02227714 -0.09809094 0.42718133 -0.57402474 0.24496512 -0.17259572 -0.40236446 0.13608776 0.01074257 -0.26021844 0.07596851 0.0765401 0.003268629 -0.14890192 -0.086508706 -0.00864909 0.13718973 0.33767992 0.023328234 -0.10886388 0.4847699 -0.110836774 0.073128566 0.16978927 0.13410147 0.100380115
Users-wu_ivan-Desktop-Ivan-CS_Senior_Project-midi2vec-midi2edgelist-MIDI-Ed_Reavey_8 0.2893252 -0.332951 -0.30353814 0.01302881 0.11100248 -0.56289643 -0.07946924 -0.09364955 0.83025885 0.12491619 -0.016356526 -0.16654468 -0.04828532 0.009138123 -0.18389377 0.14664789 -0.08579875 0.20328504 -0.015860846 0.007442546 -0.10553276 0.35438073 0.09578135 -0.063624464 -0.7238875 -0.023737289 0.14921321 -0.027736444 0.32192394 0.14240202 -0.22501242 -0.32830012 0.014451457 0.061695866 -0.32628945 0.0010395116 -0.07693529 -0.019248309 -0.50364697 -0.36466417 0.11632597 0.27304557 -0.13239437 0.022367857 -0.059411187 -0.16573404 -0.30717844 0.10481703 0.049655233 0.2748493 0.06897496 -0.008169751 -0.15257402 0.056963064 0.26434755 0.24879092 0.24262851 -0.11911853 -0.50916636 -0.006754642 0.42394844 0.100421846 0.24408722 -0.041291855 0.056205116 -0.16747087 0.110381745 -0.1129493 -0.009927904 -0.08594715 0.0031708907 0.18192476 -0.019633038 -0.20867914 0.08419339 -0.38234484 -0.2811921 -0.61189306 0.2461725 -0.13949735 -0.27229348 0.012198369 -0.18528701 -0.32472175 0.017110817 0.2161765 -0.13048673 0.042554922 -0.08135292 0.18471284 -0.10346208 0.16974165 0.27877122 -0.4312995 -0.11551269 -0.20220186 -0.046538893 0.027820988 0.23156366 -0.14156242
Users-wu_ivan-Desktop-Ivan-CS_Senior_Project-midi2vec-midi2edgelist-MIDI-Ed_Reavey_4 0.15309528 -0.4653471 -0.21243401 0.02496529 0.14367369 -0.1459245 -0.30159065 0.073630646 0.61142945 -0.17863397 -0.010763189 -0.26629624 -0.0043940875 -0.22955883 -0.13391219 0.29286137 -0.14746995 -0.010938754 0.000359655 -0.13825831 0.1711745 0.2262426 -0.04878017 -0.4297931 -0.6405919 -0.11750093 0.28867564 -0.2614179 0.14726928 0.27461213 -0.24626392 -0.10268067 -0.45534003 0.41109216 -0.4843152 -0.027408129 0.009614228 0.09369697 -0.50066626 -0.39066657 -0.22729073 -0.008708997 0.018854396 -0.07575072 0.33874556 0.070049375 -0.34764886 -0.004257933 0.28892437 -0.20432411 0.3048228 -0.14728211 -0.11804855 -0.1715967 -0.016419219 -0.12885849 0.38100556 -0.2422697 -0.4009343 0.10289447 0.69818294 -0.23415332 0.5197973 -0.1753742 0.03325922 -0.079352595 -0.11351338 -0.20139168 0.2981169 -0.1275037 0.010313514 -0.06022853 -0.10382211 -0.1496821 0.048216086 -0.13716787 0.0081735905 -0.31601012 0.19291815 -0.1500509 -0.2849471 0.08635454 -0.15178274 -0.40918142 0.24428034 -0.045782477 -0.49763963 -0.22967586 0.15832706 -0.069599345 0.01970234 0.35877538 0.49912938 -0.23090556 -0.17585512 -0.38447425 -0.1564623 0.2116964 0.29055977 -0.038846623
Users-wu_ivan-Desktop-Ivan-CS_Senior_Project-midi2vec-midi2edgelist-MIDI-Joe_Liddy_5 -0.1677929 -0.25768435 -0.056042068 -0.1896365 0.32853898 -0.077983476 -0.21791407 0.007679972 0.38004097 0.192578 0.47251928 -0.26201597 0.22632602 0.23735577 -0.2357607 0.5707728 0.049244218 -0.0673778 0.335139 -0.29621506 0.15755075 0.008445608 -0.26392496 -0.8730846 -0.20567897 -0.039084006 0.28815767 -0.26252148 0.40758747 -0.070528716 -0.3996156 -0.54267764 0.09242857 -0.24866346 0.15993522 -0.11346697 0.3993697 -0.39681792 0.24870987 0.010161025 0.025769645 -0.1765703 0.5093864 -0.12748581 0.16626583 -0.13403782 0.3560351 -0.30179688 0.071947664 0.0070671714 0.23693258 -0.29106483 0.04369459 0.27359724 0.2718499 0.28550434 0.28903323 0.32250077 -0.36265185 0.1459528 0.20822814 0.038790245 0.3363984 -0.35852984 0.045567527 -0.33414525 0.1033629 -0.5212964 0.24697405 0.075167485 0.25666445 0.15988857 -0.055842865 -0.07212334 0.038513415 -0.5235943 -0.039627936 -0.35949278 0.1343556 -0.3497432 -0.7753242 -0.13817988 -0.1568443 -0.31468928 -0.3395405 0.13640629 -0.17567506 -0.033894844 0.413678 0.40271804 -0.058685463 0.11627338 -0.003771939 -0.26220405 -0.30016753 0.41393054 -0.029230418 -0.18616731 -0.058361355 0.039681345
Users-wu_ivan-Desktop-Ivan-CS_Senior_Project-midi2vec-midi2edgelist-MIDI-Sean_Ryan_5 0.18499497 -0.18034501 -0.039785206 -0.323211 -0.011919482 -0.55589986 -0.18752538 0.2130027 0.18925826 -0.019962382 0.14922805 0.32465172 0.049543668 0.07436665 -0.30017734 0.007842233 -0.09428243 0.14976507 0.1543148 -0.29388237 -0.18795438 0.48308745 -0.1301662 -0.3195598 -0.1658452 0.08801763 0.18383174 -0.014581493 0.10948478 0.048568923 -0.0974564 -0.57270217 0.067234926 0.4702049 -0.29521865 -0.15423408 0.04543563 -0.24336925 -0.49830317 -0.35130367 0.14410542 -0.37938443 -0.03584426 -0.24459599 -0.23719719 -0.20455877 0.27695978 0.1610342 0.057015315 0.013328871 -0.12260603 0.2658403 -0.4517971 0.25449798 0.0039807525 0.5754714 0.510065 -0.13022916 -0.4146371 -0.085916035 0.2798853 -0.032670196 0.32437885 -0.174016 -0.16351093 -0.44160056 0.07318423 -0.12831222 -0.083211005 0.1989466 -0.099240325 0.20699398 -0.23713346 -0.08379096 -0.15915217 -0.53377837 0.11403031 -0.20636417 0.02765644 0.24187735 -0.083245836 -0.19308525 0.07520432 -0.29521063 0.11962264 0.07918264 -0.1727804 -0.0151543515 0.1092978 0.10259955 0.016599849 0.18362817 0.16985446 -0.49358132 -0.22688659 -0.052521534 -0.17469096 0.2295062 0.0071708574 0.30866057
Users-wu_ivan-Desktop-Ivan-CS_Senior_Project-midi2vec-midi2edgelist-MIDI-Joe_Liddy_7 0.124861866 -0.72298807 -0.14512263 -0.05538625 0.25236356 -0.28572834 -0.29771712 0.29914367 0.5234884 0.1371275 0.26099175 -0.033577424 0.012144541 -0.48253497 -0.7891008 0.34489518 -0.037929293 0.42398134 0.58651495 -0.34689403 -0.048576225 0.21892187 0.039378233 -0.36396375 -0.24720886 0.054341886 0.029387293 -0.16573046 0.06708496 0.1221697 -0.26593754 -0.67504185 0.058454152 0.07986848 -0.2816853 -0.04174991 -0.15477349 -6.537299e-05 0.020132106 -0.15252244 -0.06493786 -0.2436367 0.18372057 -0.08397628 -0.32298547 -0.10838538 -0.21466617 0.06827681 0.29523388 -0.031014854 -0.020182189 -0.02057246 0.03963649 -0.051584322 -0.08695948 -0.026548643 0.23489211 -0.09718718 -0.40040788 0.15614901 0.06211897 0.1932573 0.030338194 -0.034334917 -0.2801348 -0.10941883 0.3962685 -0.14899711 0.12000865 -0.14615902 0.045460723 0.22694165 -0.18144917 -0.048857164 -0.09383343 -0.09953084 0.05310439 -0.23011659 0.1085649 0.097699344 -0.179011 -0.09640126 0.14943562 -0.09650893 0.04716385 -0.03846661 0.27620497 0.021387165 0.17724466 0.20475274 -0.36727506 0.30383515 0.009669306 -0.08956624 -0.08273829 0.0039222245 0.17443086 -0.07519214 0.054209333 -0.06140745
